solver_type L2R_LR
nr_class 6
label 0 1 2 5 6 3
nr_feature 19621
bias -1
w
0.2555124475016634 -0.01240289157989365 -0.001874558173521199 -0.04539490558022584 -0.02182217454870121 -0.03874055886406003 
0.4802806804386925 -0.1447879062216817 -0.005405642607083979 -0.07899464921661985 -0.05695404215221402 -0.142916231760418 
0.4943060193763699 -0.06689824361998378 -0.1096779166833324 -0.009410946495506705 -0.127147585172594 -0.003719743873347772 
0.6665697106508401 -0.0709178162837129 -0.1124207941731653 -0.1198429518370339 -0.1514921939374934 -0.07855357903300085 
0.4324202693778963 -0.00524330091294758 -0.3892242796051633 -0.001895664001127865 -0.0318216180534803 -0.00397972914879583 
1.134200186770695 -0.1494990380532577 -0.002510523236633395 -0.3016437983243389 -0.03728315727400815 -0.2167458372258959 
-0.03302924700062295 0.07295707218604597 -0.002197965574965925 -0.05282844834946828 -0.01352001602970092 -0.04156522479963717 
-0.2476009172173934 -0.005275721708499969 0.2875969525083771 -0.001935103520566051 -0.03247503341178488 -0.004047496445122324 
-0.8555272542369289 -1.528689510827181 -0.05557285083097269 1.394439170983145 1.296778517051004 -1.073243208980939 
-1.125212718851167 -0.6698255411038744 -1.128527832822838 -0.2390072151241427 2.406089199511512 -0.2086942067114494 
1.865605432717815 -0.1386825257121863 -1.744375416641242 -0.05891372957380178 -0.4763579891008426 -0.1118654964538587 
-0.5210453524191798 -0.4843892301602538 -0.06491423251973896 1.191013209791985 -0.2115876351853443 -0.6606487013194503 
0.0292835814362042 -0.01523366191447408 -0.01558538795625459 -0.02456512103298473 -0.0320048647535935 -0.02432262685239988 
0.0273892535788692 -0.001309213467122285 -0.002564588659658794 -0.01575910038749839 -0.01207975328710287 -0.009158313587194728 
0.3038972609462168 -0.2970082176940818 -0.512796896981404 -0.2072264286446663 -0.3230250930040868 -0.2229865036676222 
0.02594801835251104 -0.01687123740050534 -0.007583571575444175 -0.01815310655466703 -0.01558482056497363 -0.02186689407453885 
0.006762732635498372 -0.00148163060604733 -0.00109907288884874 -0.001279662391257485 -0.002858599547563442 -0.002296942295632438 
1.061813786771939 -1.269718605914937 -1.085207682981729 -1.046650286540911 -1.14982903847128 -1.029161894231961 
0.005630742556584633 -0.0003866881145267651 -0.0009592328977911107 -0.001264960824070362 -0.003722211984460488 -0.003614740667622736 
1.433684074558541 -1.683742406444849 -2.200868674481249 -1.412351282916154 -1.794392129557589 -1.354877979873227 
-0.4781629359655863 -1.076576331130259 -1.287292667244716 -0.8465767200626919 -0.1715992349799626 -1.063329042733927 
0.4604828230092153 -1.089323715564343 -0.7391023207415885 -0.9779649613305724 -0.7198127111468589 -1.037671508316084 
0.05310551780535675 -0.009923000153507708 -0.001258236499059549 -0.0270040635279286 -0.009930987409797696 -0.004365973126170759 
0.2745458546686104 -0.7321267774187288 -1.249427517547875 -0.5653713991126484 -0.6415678009042929 -0.373291702396732 
0.006128390769805727 -0.001838101332042891 -0.001661821189417363 -0.003250721049101277 -0.005545831947037066 -0.0004703284220372339 
0.3038822055832647 -0.2950747208532137 -0.3784552180691388 -0.2652014229939305 -0.3033410520447583 -0.2938806804365912 
0.2434223119929465 -0.2904121215007727 -0.139498715830139 -0.1867952973147367 -0.261242215780328 -0.1639170323655664 
0.01430448142488423 -0.005213139451579008 -0.0409007248436561 -0.00559674329118214 -0.03209328937120023 -0.008948700800702942 
0.04455581444842618 -0.05511372577241849 -0.07455530512507866 -0.05441869629584285 -0.04620245395454201 -0.05676449590453956 
0.5254917393311876 -0.4395709557588351 -0.1821035474390627 -0.3813321885083799 -0.4881690462254308 -0.557929841889454 
0.01747109736941664 -0.006535261116574279 -0.00233390467276469 -0.008146910745256903 -0.005351422265878158 -0.004846019764473114 
0.2053100844194304 -0.1480516204603454 -0.1309344255389662 -0.08798076690354202 -0.3504770274742842 -0.07064391865852904 
0.04551651019929188 -0.0007538554120009892 -0.0008055158291442127 -0.002746080486019052 -0.00159227026871345 -0.0178264085285679 
0.9950367182744351 -0.8468674292405148 -2.017971740185206 -0.8227382445141374 -0.9718422390448849 -0.9199501039830531 
1.011298617405476 -1.214292700850157 -0.9216246277199436 -0.9919435874196956 -0.9122152312407374 -1.078842878252072 
0.001359395211976234 -0.0005158872469698075 -0.0003263048999803971 -0.001277581707762615 -0.002862051909596563 -0.001456263903008626 
0.707839896540486 -0.512760998071458 -0.4405832233124501 -0.3425753703817923 -1.023074333646424 -0.2561968536709992 
0.01245154830890364 -0.0003105433473408984 -0.0003190057232038305 -0.0005904657833378403 -0.000798095928184944 -0.008872224993563086 
0.05559258694941788 -0.07256246582026735 -0.05166007346598769 -0.06141164762864875 -0.08237176265584094 -0.06364364641986671 
0.1726677801119976 -0.1136424678603284 -0.1035495362783865 -0.08562748652788535 -0.205442934139579 -0.08464352175711966 
0.6696355642369027 -0.5186460473607548 -0.3850619718148862 -0.7148792941947538 -0.6296688800642474 -0.5570859612268783 
0.00471329377780236 -0.0001659589297329601 -0.0009176287069553063 -0.002569148194125126 -0.0005921973524082807 -0.002638998006597863 
1.72847287936052 -1.900763771027242 -1.155167074090363 -1.164472787033438 -1.174686548164775 -1.25061664039324 
-0.07094885748563999 0.159950573100784 -0.00372531691622328 -0.08269056550691349 -0.0146815422936088 -0.02805143205035329 
-0.09442073844163144 -0.1158512010449405 0.2856546266366167 -0.004718945957986919 -0.09001731744938228 -0.0009270207392535612 
0.6740959127688269 -0.7745602266013609 -0.7755820078070044 -0.368907868355007 -0.6300388761970065 -0.3442305357164956 
0.08946770818385762 -0.07152276938485164 -0.08111012744337262 -0.04765661177082611 -0.1375801670460606 -0.05648836440147302 
0.00120321649609573 -0.0001081810320545384 -0.000736569239790088 -0.00325432784126531 -0.001068718305667763 -0.0009671667241813964 
0.5695381229940367 -0.4951203791649044 -0.4287638739922501 -0.3310635541464128 -0.7726452707500713 -0.2495004437212832 
0.002605634862744182 -0.006081215065104762 -0.001723614960743607 -0.00189521706805961 -0.002103120487179982 -0.002198335340553777 
0.004073431106965206 -0.0001290966351081026 -6.438347802536186e-05 -0.0002344909648813007 -0.0002161697098087788 -0.00878205349423786 
0.544850543681076 -0.1474281345559272 -0.08529881298766014 -0.2382787403809449 -0.06430719171098723 -0.2365983931973322 
0.0009883077276799609 -0.001047387981792117 -0.0007406878805054563 -0.001352007201453712 -0.001838149660997891 -0.002569114793748803 
0.00102127626322235 -0.001465195554515141 -0.0003219829585617304 -0.00110509525210486 -0.0004256829794097813 -0.001466346915721541 
0.2177810858671025 -0.1728531393507933 -0.1023987301047481 -0.1256716065582175 -0.3029961694387956 -0.09255781502775408 
0.009344155903321471 -0.008472829423322349 -0.002317268014973482 -0.01470505089120325 -0.008147195674059709 -0.009895556987406216 
-2.811070638291704 -0.4602587853338067 -0.01828265580100365 -0.3606274919909446 1.919406867569043 -0.2768888492001523 
0.00286089056821962 -0.0004609273715083124 -3.331948704713943e-05 -0.000670441701132025 -0.01589641552599987 -0.002176168239508989 
0.01233014239119475 -0.002347344309860919 -0.0003993317430881883 -0.05847534476945711 -0.005237971259176937 -0.009110111425783397 
-0.6938658279634731 -0.6491951560132853 -0.3066802245158194 0.3051287394398091 0.4983972268104717 1.069490500147409 
0.8401578674351481 -0.04189584401681598 -0.3684729654237494 -0.01460039832639341 -0.3819209227985894 -0.02311946807275991 
-0.1895526276428694 -0.4504147911501943 -0.005829946777798296 -0.1393839382281656 -0.108571739024016 0.8074471512004193 
0.7090982403180931 -0.02555288662736669 -0.4842634582727414 -0.005456524674127733 -0.1560225499197299 -0.02240323563779467 
0.2324898334276546 -0.2666209464595594 -0.1080404390639881 -0.2076316572126863 -0.1539213383153334 -0.2338272485351983 
0.3581628130901792 -0.3388774857710518 -0.1868956760385222 -0.3143095718691994 -0.2948157789502073 -0.4364820880576869 
0.08111092163407686 -0.03914489928300285 -0.08663731317263404 -0.06296841853832082 -0.1638201832889215 -0.0839308948008311 
0.04376179279769731 -0.008517041109799513 -0.0008515050012879774 -0.01939227555225859 -0.009672411982551862 -0.01851070393874929 
1.058111498540711 -0.08006688193142672 -0.01713604227536663 -0.1372452637988986 -0.5815955143653735 -0.4791417366900428 
0.3742681434375073 -0.4501669403353751 -0.4731837915247309 -0.2819854639699864 -0.3696746458211358 -0.3145434988738335 
0.1698642856297503 -0.2216353430817117 -0.1513098311517966 -0.1684076637828808 -0.1191549235481549 -0.1253737307179886 
0.04381483656434818 -0.03668957560460094 -0.02193685766776529 -0.02806607003254668 -0.06209530493605929 -0.03656449219629156 
0.01939028315501572 -0.008529854739729283 -0.003380136361423564 -0.02038218527844352 -0.01337834556356251 -0.009156605905692521 
0.001995913004093468 -0.001092691638045774 -0.004958018445321183 -0.001214820754074634 -0.001909296831114859 -0.003598080146347233 
0.1602091709286779 -0.0169921268537652 -0.007546914410519408 -0.1088990140506046 -0.007629992593065713 -0.06664780691714253 
0.005804065841031717 -0.0005369611225389706 -0.00110568999160881 -0.005195906509624575 -0.001176507216637166 -0.001567891036122312 
0.2402877809224722 -0.2525476295272613 -0.2838247726080566 -0.2116232761151753 -0.2603181236329895 -0.2317543909217351 
0.00567075872306714 -0.002070891253618661 -0.001621206500477537 -0.001985175972332769 -0.002369959952002798 -0.004436168481609488 
0.03603216794934331 -0.02404040104304709 -0.03869217458435233 -0.01703882109926701 -0.05457766133490348 -0.01986013754266606 
0.0257674877596496 -0.0003216173190514307 -0.0007352604585806469 -0.009209608267317874 -0.001014739346881677 -0.006102471974005045 
0.03162708386589747 -0.05815513683862977 -0.03377953105675964 -0.03402653626873615 -0.0422826022682067 -0.03861643586594514 
1.023621113966087 -0.1220428193696884 -0.4563793094207137 -0.1351085025520549 -0.1119958323192669 -0.7074387128255742 
0.0136725336523488 -0.005158907334756732 -0.03009211000170856 -0.005854419850015823 -0.02200107521608517 -0.01336986257829167 
0.04690164928005196 -0.01938063999437864 -0.03261347590878239 -0.02574729701871903 -0.0263140511071676 -0.08997036331626049 
0.7011596011863802 -0.06097229687123703 -0.01046867601605013 -0.1766046409012369 -0.06583754246031795 -0.1614363393981534 
0.06033764064177164 -0.002461210201428588 -0.1063478270984036 -0.007080121666723587 -0.05364568620726869 -0.009206235850002836 
0.00578200769751161 -0.003656969492126719 -0.001429374379017206 -0.003031114386084374 -0.001653148945924917 -0.005796880829746268 
0.003655853718950454 -0.001480111330453339 -0.0005269843996081743 -0.001025232087697272 -0.002262940587292261 -0.004729268822469391 
0.004331177888044676 -0.00101941869803724 -0.0001284568919884976 -0.00405449244964436 -0.0005496572915566139 -0.001417473778246422 
0.02002811655949436 -0.003969794260801344 -0.00109048777548741 -0.00703744133536905 -0.01334843380912042 -0.013912477573878 
0.002475553210406513 -0.001036381419688974 -0.00101890351405081 -0.00696203225331266 -0.003070363249685636 -0.002746610164435339 
0.0003151289394683865 -0.001034088826494182 -0.001546461583707926 -0.0007357237790449992 -0.001193020061069817 -0.001000103648770887 
0.01026493130693755 -0.005160863785690261 -0.003723356676775995 -0.01819908273261225 -0.005834455105311248 -0.03173938626234006 
0.09075224208766322 -0.03796935752351888 -0.08123322316062853 -0.03817024538593432 -0.1372931701292943 -0.07499772330227891 
0.04602734296288043 -0.002211108014187955 -0.001637134537420524 -0.01714540499501119 -0.03307458752909267 -0.01015698249034422 
0.03453511123147072 -0.0007784345343717374 -0.0008159929450669705 -0.003152437744596335 -0.03254275471869131 -0.006712143035894107 
0.005320921278687844 -0.000105944919034598 -0.0001042029365885226 -0.008829273475871861 -0.000546037334269325 -0.004506190761738743 
0.0605055811896577 -0.006911939052896441 -0.005412956793034938 -0.008543201436424621 -0.01501161288617618 -0.02366996991581762 
-1.144503659820453 -0.2369027924924944 -0.2302278648165995 -0.1534808508998635 0.7257085068450089 -0.1291328286409468 
0.0118138534309743 -0.0004217957590506357 -0.001257017044640336 -0.006403829683650168 -0.01180548365123893 -0.002330176531285902 
0.07382708966835701 -0.0047441251442086 -0.006227350360487586 -0.03910358119103147 -0.01946711444616278 -0.01582895777296156 
0.005919588870369559 -0.0003226601528766369 -0.002051458993082049 -0.009412422751572579 -0.007778377994701555 -0.0003263799839508982 
0.5503887601353803 -0.07314161228533449 -0.01072436605009339 -0.4390253748722431 -0.04014756754332634 -0.1752166397564138 
0.001201317887281927 -0.0001492140073371229 -0.0003784604639181419 -0.002870629223186861 -0.0008156787800360846 -0.0005638221990257563 
0.01921867769511895 -0.001501727955140954 -0.03941151146716505 -0.004196258729864157 -0.01225743960762741 -0.0008998977808457557 
0.01037888259414124 -0.01026095773358555 -0.000521523889337649 -0.003008939261316706 -0.00488933505502249 -0.0005249829239251096 
-0.1420642600712283 0.4771413053180509 -0.005421494522946646 -0.07932820731309094 -0.05728773713929991 -0.1431787077885265 
-0.3500224632329768 0.4219556818832295 0.3232939650926473 -0.04038384547515413 -0.1020119062238446 -0.1970075233869434 
0.005020112942235198 -0.006735146050908474 -0.01606749287284981 -0.002308422264945128 -0.01382087847105978 -0.001452511944966958 
0.01300437984234684 -0.001650351406546443 -0.001199859847441886 -0.01879577532682747 -0.001122669821504637 -0.003172857144559351 
0.1998214098526064 -0.1414520840388389 -0.1371764042353379 -0.1990459864945257 -0.200964449242152 -0.1437467946185134 
0.02498078165594126 -0.008924679254803513 -0.005553279201665676 -0.01145457325663821 -0.01279667517345384 -0.004385238431803106 
0.07870922825521136 -0.01179492412645155 -0.01311086839016037 -0.04706314496841404 -0.02769049626246331 -0.01556664309281619 
0.05237458289501044 -0.003306937363990479 -0.004472951100843849 -0.02440980112738787 -0.01744845041571775 -0.005208979471251682 
0.003769890458989856 -0.01024013025211949 -0.004443594110536906 -0.01091751563360315 -0.003021035391494671 -0.01067821791535043 
0.2086144264058853 -0.2704741971323774 -0.2147353487763334 -0.2449004648023237 -0.1948342571957803 -0.2645125434947042 
0.0504487582923368 -0.005462574925874841 -0.008193871489942552 -0.04771042745928571 -0.02556398502873901 -0.03757616744357666 
0.001863032793998965 -0.001046536875146286 -0.001370117824291706 -0.002674944400170585 -0.003448000972187137 -0.0007071754570730982 
0.01958625691177355 -0.002148393488615694 -0.003179452974188113 -0.01250100843260074 -0.007651096826170815 -0.006417608799782963 
0.005642499181193775 -0.0003283079139431952 -0.002484902411570595 -0.002340580101142217 -0.006140536747573725 -0.001475681550793972 
0.008269680085900784 -0.008674209346680738 -0.00401233046562867 -0.004029139484094226 -0.002271106283735778 -0.008987835044367011 
0.2560409884123296 -0.1945603359669975 -0.1483345121732475 -0.1135958345156065 -0.3867153729745814 -0.09382863123349805 
0.005216888311959092 -0.01062982329133832 -0.006344840156537028 -0.005204157794311941 -0.01111024815668271 -0.004434903350320429 
0.05900085304106213 -0.0440893551674696 -0.008900414391158908 -0.06906385849983918 -0.02045374561789843 -0.0617562393709883 
-1.197635772051868 -0.2277494093540272 -0.3158959001825637 -0.1725293559232119 0.7346097217219955 -0.1620181449358661 
0.08879342075203815 -0.125819764111098 -0.01315483389495071 -0.1217913641239337 -0.06158371565453966 -0.09272016460485324 
0.005229983263762731 -0.004461659059857863 -0.005009196786504544 -0.01022119814776102 -0.005497781810915427 -0.008085784433473842 
0.004583104707027577 -0.006217864712103471 -0.004117326413246305 -0.006089288053026734 -0.005725692312496253 -0.005583373491770201 
0.006868082006897314 -0.001165821243164866 -0.003346491057359278 -0.008347716607881483 -0.003554703070367189 -0.004046044487033792 
-0.7366320899831718 -0.4950251450447186 -0.07106471232920884 -0.2852889988727623 -0.06691615630360037 1.377946260877299 
-0.7515859197281493 -0.005054210823349635 -0.05599353463009688 -0.01826957739205369 0.7881629808570925 -0.008821240635979045 
0.0075995545246494 -0.008193007614094378 -0.006408781914907772 -0.01130730538165309 -0.004943649934367327 -0.0082831357787929 
0.005725138564670292 -0.0006959534149673023 -0.001032105226716769 -0.008451665530443211 -0.001059294578978299 -0.003279003423670226 
-0.2018023701987135 0.3068729716504855 -0.007290158072633836 -0.04709420369428246 -0.02863289790072275 -0.03066491988929972 
-0.4382426646238547 0.4760813317819582 0.5447656300784017 -0.07371513196241562 -0.07223164125415635 -0.2665943471208748 
0.4637251852808602 -0.4952095240272446 -0.6493856991998863 -0.3170234734191353 -0.6342055332473383 -0.2382558151885261 
0.002820013505942383 -0.001058172152279385 -0.0002409587004485925 -0.002633767298478776 -0.0008189662893726157 -0.004728729830854698 
0.06874533119914711 -0.008871071281272631 -0.01759485977347754 -0.04150972940114118 -0.05245555568143197 -0.03733491048922018 
0.002811555695391678 -0.0002872863838504948 -0.0004043120460493795 -0.001209916332857769 -0.002596570967768869 -0.001269628741065715 
0.01118745934225512 -0.01081081426093846 -0.001265246585541452 -0.01568462805761846 -0.001132788833490754 -0.006158496782173523 
0.09842979142734086 -0.02005635086284763 -0.02690792838711264 -0.07656712133710643 -0.05205551728872806 -0.03315984750206848 
0.001452986510105954 -0.003344949683482407 -0.001192491590816015 -0.001687680959403281 -0.002763643522643997 -0.0005922117958437043 
0.2062008122943869 -0.005733828860229682 -0.005232638289683136 -0.05033251159870791 -0.02365617697018171 -0.02615800669409317 
0.01760627149177425 -0.01277350416222303 -0.01108666709206043 -0.007804243127675038 -0.03772835899809942 -0.00798374350865963 
0.09615844973085384 -0.01409993886371478 -0.009327759032837621 -0.02264827632402768 -0.04942754895732972 -0.01833550728702818 
0.0008678954650063096 -0.001440531041024226 -0.0004110621738753755 -0.0009883924939275623 -0.0009815951057424979 -0.000528372376985326 
0.009844988220601892 -0.005372971197640359 -0.003758066125552711 -0.003883450211689219 -0.01476246878173211 -0.004546125477366643 
0.0225888643643666 -0.001515322330818675 -2.277505412673919e-05 -0.003580919370465449 -0.0005152006853398352 -0.009956887290347478 
0.05165480261439775 -0.02990929888153341 -0.007698204537760689 -0.00685950505927137 -0.005400898200293433 -0.02839676461430994 
0.1897020157067527 -0.009244656776709059 -0.007170353160129745 -0.02425208327092914 -0.06963598800319087 -0.01648476685456366 
0.4664945599634555 -0.08612390953910158 -0.01211204420401425 -0.02775030641507111 -0.01086842027509279 -0.2955716233407106 
0.1978275602601887 -0.03070337631023936 -0.02678907618684506 -0.1836045303691722 -0.08568887881395502 -0.1225458151654264 
0.003467939733302715 -0.0003231745784746555 -0.000391075350076186 -0.001467713184379128 -0.001951985740550164 -0.001394377450776461 
0.03002940314211501 -0.009529613151014768 -0.0001028049362800548 -0.008621282347917383 -0.001756812080689392 -0.0005640290107597575 
-0.1841751932140065 0.2369215800392118 -0.006650307395368648 -0.04707296786309906 -0.02608999968508702 -0.0306811364865291 
-0.3882017028746181 -0.0258274242736629 0.6571425119478785 -0.01257166084714474 -0.1824733048154434 -0.01351153289510982 
0.003459509266280198 -0.001639794795510166 -0.0001266601881539463 -0.002509858502311835 -0.0003812886240498655 -0.004677682021996576 
0.08372105266950211 -0.007464830118035032 -0.0217310326429207 -0.05244305752692868 -0.04355408754169889 -0.02130379255254965 
0.005461649225363364 -0.00113504455803438 -0.0005515217646493214 -0.002204538766816173 -0.02345483642098151 -0.00656714390595143 
0.002377203198080522 -0.001311345204226919 -0.0009700121961397511 -0.003083034261171653 -0.001026637565015352 -0.004092578425071279 
0.001379622394160087 -0.001874813233241928 -0.0003142321538439868 -0.002427929589957857 -0.001402503376260749 -0.0009228842157751068 
0.0304326233086533 -0.001880674116358127 -0.0009328338389184916 -0.005712152008309705 -0.02260048779712717 -0.008488377132305686 
0.04294496568051812 -0.04379942391082988 -0.03452682602468672 -0.04711879822995952 -0.03772772971467873 -0.04329452726168449 
0.005139342120439782 -0.000102776218367061 -0.0001020232493907104 -0.00866244031205389 -0.0005230065838760529 -0.004410153439968439 
0.1209790275612641 -0.01541934746115441 -0.0117614509766532 -0.05620109221959334 -0.04978669459444528 -0.07444248201661111 
0.2186025549001344 -0.01026466981925242 -0.001549347107279483 -0.04710824440099178 -0.006396932815302759 -0.05973652725743397 
0.1379596916354725 -0.06747438414560547 -0.01722517976185356 -0.1263475909830128 -0.06758100710323706 -0.08307609659472638 
0.1821576309456956 -0.1103739701051944 -0.04883049549434477 -0.1212369264310265 -0.2466756222850828 -0.1687751743472659 
0.009978256388793304 -0.006127850551804345 -0.008712377853293986 -0.005724733800289931 -0.009935509393726154 -0.01364008297711111 
0.2261619026294499 -0.02280721097946884 -0.009603906013370628 -0.07830965629198483 -0.01017287212501932 -0.1078828285401723 
0.01958756706178152 -0.0003678726157117575 -0.00770417397809767 -0.002223413060420983 -0.01172360348780928 -0.003104376256707039 
0.08205574435848323 -7.065524193184663e-05 -0.0004419243926034412 -0.02276603583748358 -0.001042519057280708 -0.01400439780036234 
0.00739506884817602 -0.01968941044280428 -0.000684323354983561 -0.004670451105376364 -0.0008639387432512376 -0.001140158659425275 
0.1805370721849934 -0.3024805252559239 -0.236739764862536 -0.1930896181111878 -0.2455231592967441 -0.2349365198510865 
0.2882712750040402 -0.01856192847257566 -0.06350513091819199 -0.07219089860953606 -0.1551165253203129 -0.1452780531136976 
0.01384941753461902 -0.002426992929270433 -0.005402257450341981 -0.01160459922538341 -0.01876768677081068 -0.003461151447977099 
0.01107186422216553 -0.002850612435626929 -0.001085652661971077 -0.003979199177345986 -0.003972946573731036 -0.002536138614667408 
0.1507074982226803 -0.07560181786347785 -0.04958946272224769 -0.05300572530274175 -0.0646643855406067 -0.0230616131365149 
0.02115466303892248 -0.001876486276826075 -0.0007391502211811596 -0.009465987429518081 -0.00360721568639967 -0.01068997825566478 
0.4284013028185901 -0.2687922679278139 -0.2647017318746145 -0.197965858044077 -0.3199985407400124 -0.3807795401922225 
0.3415230117387748 -0.6869701480275263 -0.2964126707143984 -0.2108809605927657 -0.2607686194223063 -0.1867656124941603 
0.03211041629899365 -0.003704368849498999 -0.001365928760782498 -0.00376529200246834 -0.006116541756948197 -0.007702500302939803 
0.005468319216870724 -0.0008857914574930662 -0.004372171945998405 -0.001323892516018812 -0.004537487008078192 -0.002881248540665543 
-0.4157486091539825 -0.003345666428292892 -0.0002077810974148638 -0.03668040413807595 -0.005605397528551864 0.6929393024719024 
0.1972072573415822 -0.09117310164302307 -0.07352556927596539 -0.09831363480560841 -0.1561340495971782 -0.08594458292863785 
0.1766020759279657 -0.01304424003046706 -0.05843202463599496 -0.08740961110163946 -0.1111787993928829 -0.05845782017386439 
0.0041677588632909 -0.005113277733009769 -0.003345138947800556 -0.003042990140928213 -0.002669293574024884 -0.002955246125037669 
0.01368489867304874 -0.007400330581047751 -0.0005958117522414197 -0.01030583829335548 -0.002631052228446963 -0.003999120478044641 
0.01431648730890267 -0.007638528935495743 -0.0007319381079819063 -0.003891706507583259 -0.00578014456061767 -0.002104412296658031 
-0.200869065954275 0.3047409508280479 -0.007296164965368203 -0.04739943984201003 -0.02867197163884753 -0.03076982047837522 
-0.3097422299707591 0.3834627884982992 0.3639569783811276 -0.07338945066862756 -0.07637098570163897 -0.2357719642984319 
0.002418986508878701 -0.0008487766382771034 -0.001633338412746251 -0.003504828934706716 -0.003229065012161406 -0.0004206521401756338 
0.006719839992205317 -0.0002900156711338742 -0.0007060295735616413 -0.002044972882096143 -0.002777245850789097 -0.001199844713953577 
0.3625374764211378 -0.0970118116813609 -0.003195519245977619 -0.02567084139618145 -0.01651175191136807 -0.2742845469932275 
0.838727227930582 -0.8209531655526182 -0.5830586823924278 -0.5702308065822483 -0.5336214479482932 -0.618962555512037 
0.02437723855957593 -0.01980967621774792 -0.01310992520890459 -0.02571112375823723 -0.03098813208318964 -0.02721111575970503 
0.003158972625483109 -0.000155400231152545 -0.0002855167849575434 -0.002528038627195665 -0.0007488826411142668 -0.001762385694929843 
0.001391876613102395 -0.0008880026833200581 -0.00140547496760464 -0.001303185473564198 -0.001009217411751937 -0.003665856968714039 
0.04841711984575213 -0.04164714200357485 -0.00727411236367672 -0.05928474330810756 -0.03099485357180487 -0.05490261951828401 
0.02044287296367401 -0.006286122129314049 -0.00325399808456278 -0.00392568007391339 -0.04774397703766686 -0.005996215988156786 
0.01018765716290584 -8.253202183117925e-05 -0.03594646177989486 -8.860005427227438e-05 -0.01275542611633641 -6.092608235041028e-05 
0.01661242170278395 -0.01250744216709276 -0.00392301809049532 -0.009021422976789326 -0.02877063858481342 -0.00710132558864472 
0.008629048442709689 -7.52288876658135e-05 -0.0003830042970963343 -0.004727777481237765 -0.000427243968883806 -0.003728453287935782 
0.005301576638768677 -0.002927962306629895 -0.0002480808204888672 -0.00274615661046031 -0.001315990269391067 -0.0100444293121337 
-1.363737098031132 -0.000198245535150476 -0.0002402747153655529 1.438547129578939 -0.002688560051968688 -0.03282771208916298 
0.01015132206798004 -0.0002459298785078285 -0.001069005271872614 -0.004019587735333775 -0.006087218863457147 -0.0009153608049403354 
0.01960266112557448 -0.02331996903740206 -0.05340508941682484 -0.01155098508504116 -0.02639264390716062 -0.0247288361113393 
0.1134623331349942 -0.09893904097442513 -0.07998664484812321 -0.1009482273184276 -0.1116316568421086 -0.06229969009375722 
0.313725919200577 -0.01106402531248497 -0.04087069364474065 -0.02309526501959572 -0.2380952463080814 -0.1496680741643982 
-0.4186646594422904 -0.01890328860565594 -0.00359850944029074 -0.07424969807776029 -0.004906520056824079 0.5895061361973474 
0.002928390921161865 -0.0002091540124570777 -0.01351490440836016 -0.0005919579223686369 -0.003828486553154819 -6.457404009243786e-05 
0.005327338865558136 -0.01859205009091212 -0.001214688073530478 -0.003999651897352098 -0.006225721056285741 -0.0005177105217361034 
1.309771280046149 -0.8106093133701221 -0.01900845348480972 -0.2407247987103459 -0.04449927301523579 -0.3785453920459697 
-0.1514687074912849 0.5467518118545391 -0.0957080362343817 -0.008948148660555292 -0.10905195305797 -0.003628589688692278 
0.004011110935942915 -0.0007530917840519714 -0.0006083292360356518 -0.004023443142523464 -0.01361240978247612 -0.005157608010135728 
0.001576783289408312 -0.002652138533233737 -0.0004687515938045392 -0.003100301339850029 -0.001788114112162379 -0.0008340241606320634 
0.002226093692906694 -0.002000457366104649 -0.002489858547666355 -0.005546551302475036 -0.002405981134032781 -0.002538371936375009 
0.007482375582586474 -0.003468520192784329 -0.003988816270926792 -0.007024416010815655 -0.007873883383356419 -0.01457386866555331 
0.02122537180204237 -0.008734762652962301 -0.03914509923496756 -0.008793983039221907 -0.04943612964485764 -0.01045702385095135 
0.0136693422772018 -0.004248821455186506 -0.002630747963196684 -0.01549454315019343 -0.02338351083845507 -0.01917170521401586 
0.254718586282842 -0.02446891609465077 -0.00496199987757202 -0.11992762274458 -0.01476753298011337 -0.06534336636240877 
0.032085103203961 -0.005473693121242951 -0.005814964842769438 -0.01098195319887369 -0.02208431434781461 -0.007722645962679409 
0.001378153021296159 -0.000788510820827566 -0.0006299604684533322 -0.0006120932366076901 -0.00101702024662663 -0.0001772907585041585 
-0.2073605648394826 -0.04147729485733535 -0.001367425463708791 0.5293888187539789 -0.01158367183502308 -0.142412632553877 
-0.03266119025779971 -0.0883575243054438 -0.2107093405943909 -0.01343701744638843 0.7963017366666882 -0.01645459649525121 
-0.07180667006870174 -0.7822718853233042 -0.02175442053235744 1.298617974944313 -0.2372784831039725 -0.4631884578310181 
0.05016121006999553 -0.00749853000814949 -0.01229507956799264 -0.03372368567552826 -0.0523671285932567 -0.01577162505839916 
-0.2370957731072582 -0.1214793244812921 -0.01640389478699841 -0.033173245464346 -0.03120397083887124 0.5543091095872051 
0.04029976304212298 -0.003847682347664757 -0.006072507904793523 -0.03410136404573785 -0.01421046448119129 -0.004456315316799389 
0.004465275521400454 -0.0003932611590410693 -0.0002861528909602717 -0.003255552648361394 -0.01005475408438656 -0.0009209963432823843 
0.03658201131103503 -0.0264063314079716 -0.0133213966940355 -0.0275121399293139 -0.02615771324838188 -0.01188985866135912 
0.001559102728105023 -0.0005773161830406528 -0.0005877255188024305 -0.003842602735054242 -0.003214771185805447 -0.0010825500061634 
0.02795273719625788 -8.814463672794565e-05 -0.0002501200039179497 -0.02015211843232335 -0.0006032049509675532 -0.003438427940737971 
0.01289148049343707 -0.0217217298678489 -0.0009970044035297772 -0.00920053281140451 -0.005172411411190915 -0.002823316173403604 
0.00499556339105169 -0.003642168265165829 -0.001432022649933253 -0.003529798162341744 -0.002500934544773098 -0.002543555967737011 
0.01077038375489068 -0.004724807397075505 -0.008950967255964911 -0.01024809031971357 -0.01524849670841978 -0.003196642596119843 
0.03144790377218235 -0.04660981741207101 -0.03785057936163101 -0.02658058193066095 -0.0576103775503408 -0.03160084251056047 
-0.5425963605894473 -0.1360793407325422 -0.08747520295158562 -0.1750319920497058 0.4913534129674132 -0.1972486955407917 
0.007410540504002413 -0.001071400410961287 -0.002083194552612312 -0.003905941078443447 -0.006885160903905265 -0.001834613462793381 
0.008660744939706255 -0.008737616238004982 -0.003639883273622501 -0.003750801511009245 -0.01225703345612678 -0.007331953736671833 
0.006729588658532809 -0.0004598303919518042 -0.001107850646037648 -0.002440553006124305 -0.001516730866140045 -0.0007283365653819904 
0.420963611777373 -0.4936765913365571 -0.4889730733779965 -0.4290739134324321 -0.5077454914136348 -0.3980730182720615 
0.05072108807107524 -0.01237456584434555 -0.008937034241760183 -0.03080115566942385 -0.02633757530440302 -0.04788231992943034 
-0.1499821383033047 0.2000878079509079 -0.003385667106603916 -0.05873057132599015 -0.01009871775581059 -0.03824522534710267 
-0.2280384866465345 -0.01583205932858428 0.3573439510037554 -0.003097027085586705 -0.08096998114225114 -0.01082544789306746 
0.09864401435532145 -0.006179613986604781 -0.01312681028873055 -0.0326569135775641 -0.0645987227430774 -0.01150005986005913 
0.05804028680429919 -0.0006268864331835758 -0.008265884603607009 -0.04093965714658319 -0.002267350583829813 -0.0554108588367054 
0.3957316769048548 -0.02553157438391841 -0.00901084444060845 -0.07724141175751376 -0.07240463645992468 -0.09907603398537665 
0.004438735511060441 -0.002043191712805283 -0.001099815125978973 -0.003829925285630125 -0.0123057962206573 -0.00857516747898469 
0.06912154092636549 -0.02286879344102656 -0.02037448959303619 -0.02631135766061583 -0.03720417901596342 -0.03587726665124981 
0.008332860579811797 -0.001484003705521369 -0.0002083358562433353 -0.002069864453021848 -0.004896664505179647 -0.005007845825916026 
0.002472800583934538 -0.001162054293042671 -0.0006985874998669192 -0.000805558217803287 -0.001656326348284229 -0.0002170583905418502 
0.02613075051002647 -0.01379829801581543 -0.0215153568966703 -0.01304257835847921 -0.04037029763522059 -0.008761184003474341 
0.00761528009119982 -0.0008876188217510453 -0.0001888875300805406 -0.001630160935678348 -0.001214854394542411 -0.001605981557366772 
0.005213381032619377 -0.002008726435176026 -0.002655150960093595 -0.000959986582104323 -0.00237258985265828 -0.001532008613551433 
0.0173818811674686 -0.006392563485267708 -0.02362064084292933 -0.008618679056118831 -0.01321502271447005 -0.02303511571376913 
0.2892683620256004 -0.1543859606162089 -0.02088213028859724 -0.2018050836250457 -0.1236327787203535 -0.3001659267092459 
0.1229140439745807 -0.03680229423801743 -0.04011608610528725 -0.05467116996393327 -0.05277163639588367 -0.02014022280202324 
0.01479289424971885 -0.01741839740195415 -0.01407055797683856 -0.01491173777153855 -0.0202896898350247 -0.01191782906093281 
0.04254892988698351 -0.03688387468279571 -0.01651357232850751 -0.01954510544538882 -0.0585959284672663 -0.03318157392914295 
-2.767095132255974 -0.6869548326367976 -0.05722712381163186 -1.093844623527484 -0.4066610059757383 3.89289619007731 
0.9680207545382779 -0.4347766921239737 -1.140162238735784 -0.200349065241147 0.1784326713734591 -0.3093441532593441 
0.01825063503441022 -0.007608910983910123 -0.005739489327093255 -0.01832983154360372 -0.01344600909965195 -0.008718809672327904 
0.1373722189655283 -0.01333584787018673 -0.005588180468323522 -0.06759124104843854 -0.006024623068054859 -0.03682700657044882 
0.1165929032960328 -0.01150000238749391 -0.04996539458297589 -0.06632787467169596 -0.06177880350930676 -0.03261991992928163 
0.6695805310665562 -0.208193850315725 -0.2087666560945011 -0.4674898924380902 -0.3453249865197435 -0.4345877885344708 
0.006859241896874922 -0.006848452029404035 -0.004360297919996937 -0.006616696502713222 -0.005961329809130378 -0.01551139366993487 
-0.3565418004860531 -0.002091821806233243 -0.0009219696778732725 0.4808708901152772 -0.009139190735287135 -0.07121289203785709 
0.6904540125580398 -0.454111199107476 -0.3277684739366592 -0.1387566161981907 0.4517047490010624 -0.2260750375102038 
0.009871213787147308 -0.004419889246952512 -0.00137943950373353 -0.01099898643012603 -0.007377413049788743 -0.004552091582488409 
0.004335793283392053 -0.001362084146261366 -0.002427081628317934 -0.001689163365315736 -0.002242093264501662 -0.00213056439821727 
0.0217014518527294 -0.005028676863137407 -0.0007034164648909961 -0.00744985197141273 -0.0121672178201954 -0.003472269997818625 
0.6612004181198694 -0.05313585154606112 -0.0009698474906637613 -0.04343001135075478 -0.005170585934976464 -0.3208105462201519 
-2.57181088146792 -1.226134817043442 -0.9862054847450201 0.3203503323163811 -0.01254552108646448 3.205936452005312 
0.01373083161004542 -3.478772270739101e-05 -0.01277466947161359 -0.001684314693161379 -0.01052831485315747 -7.939794747677995e-05 
-0.2410712429085387 -0.1451321765107928 -0.006355764244383656 -0.03208677519195149 -0.001263880281704815 0.4416911836755962 
-1.051945328441872 -0.5937745854279741 -0.07068018877201193 -0.2930165080495652 -0.155499059811173 1.449846766660005 
0.6638234693743736 -0.3287702036576592 -0.7410663306870074 -0.2508495380461601 -0.9187249939832639 -0.1016930220854071 
-1.864355538628681 -1.268380362502552 -0.9175921588966565 2.832615030267053 -0.4123445502427891 -1.018007461449444 
0.4916909557927821 -0.2042664868684701 -1.244788457951374 -0.208076346373315 -0.698337407313828 -0.1273198543721611 
0.01898617098846286 -0.03189049765569254 -0.01380375364572724 -0.01383590608335213 -0.0113168181295571 -0.007436454733935536 
0.03192460772355724 -0.03612368746565719 -0.03169787325225863 -0.04025584235564214 -0.03142270746974107 -0.02289919392921682 
0.0509862621099693 -0.05325908510745531 -0.04757748749916958 -0.1036865125466414 -0.06021905014868434 -0.06575064735501548 
0.002667219421167267 -0.001148763009437719 -8.768679316994261e-05 -0.001884364916027291 -0.002163663563103733 -0.003867146729398815 
0.01802949197901207 -0.0006957703958743198 -6.69687146126737e-05 -0.002504743839688609 -0.0008060355713024415 -0.009672146544984824 
0.00589652595530773 -8.138816472944554e-05 -0.01017737154493279 -0.0006186015626379767 -0.02102572837810442 -4.959509603213766e-05 
0.06665899610334745 -0.002896718235896288 -0.01863972216042359 -0.05023031311981909 -0.03672577544350054 -0.01519345105323197 
0.04678575521910187 -0.02948675692706768 -0.00941916199984366 -0.00383520892637527 -0.01102139881532354 -0.0007788714978233558 
0.04703007859845268 -0.01894241779227892 -0.05076714118952689 -0.03585177756552015 -0.04831002553114826 -0.0149613842735779 
0.009463101130429728 -0.004173138686971955 -0.005227639129928007 -0.007107594115862375 -0.01888220923044616 -0.01107301928241165 
0.1137652236255475 -0.1539618452911512 -0.1424164131493439 -0.1413036778133637 -0.1255796313856656 -0.12740198536482 
0.00551478180716127 -0.009455438461747387 -0.001968781892541403 -0.001452938666147262 -0.00276032905817753 -0.001955278321091625 
0.002285603748095358 -0.002007842189559657 -0.002579589974779579 -0.003247762854606455 -0.004562523960515469 -0.003080581465559809 
0.01722283560909567 -0.02211514127724953 -0.0107400534790869 -0.008895877809221648 -0.02707288604505096 -0.00895602309820958 
0.2468574673887658 -0.0333278657097063 -0.004186341927801534 -0.08270010900452764 -0.07371697804648722 -0.06594736684537565 
0.06913551491865688 -0.1062396919988337 -0.0792383582194231 -0.04971082515613526 -0.07922496925840393 -0.05306497785221374 
0.005789610820612302 -0.004616096324954262 -0.001731445803208175 -0.003470079175285124 -0.00878514985221146 -0.004655684091947478 
-0.8876437609942909 -0.3910289891732642 -0.05213299480771095 -0.2006818575749858 -0.150138239822034 1.475972894446551 
0.05042160623586191 -0.05581838933117762 -0.006870198303694195 -0.02054702526518033 -0.01963123480633613 -0.007373276091955232 
0.00043468733793402 -0.0007323522075254326 -0.0005397285950333223 -0.002343172328037665 -0.0002408469402400557 -0.0006887018436596543 
0.002773841598451786 -0.0001496703196227529 -0.0001794839023307261 -0.003461522043582664 -0.0005683308986235026 -0.001056524607136549 
0.005467161904113396 -0.0008740017826313472 -0.001752334167519241 -0.0005222012962593559 -0.002170415298137099 -0.0005595827840812499 
0.05569886619314215 -0.002805401645116471 -0.000217029934596376 -0.0204764046369988 -0.0008370608290920073 -0.01412532490852722 
-0.234070962641895 -0.01351027821109776 -0.0005457615945467275 -0.004612729113624436 -0.009299240446918463 0.2903022046963881 
-0.3268601569189062 -0.03434962876667447 -0.004724648595300373 -0.02200387419514501 -0.01010213596942151 0.3907665678277489 
0.06730875257021501 -0.002267374004488135 -0.08479192238733131 -0.01482970808588983 -0.06346691904517156 -0.005006746960049297 
0.03744538462240855 -0.02920575934920646 -0.005319974870084451 -0.03191055461632031 -0.04539440369346778 -0.03736548496663929 
0.1995244310197362 -0.2915410707474499 -0.1181628017249751 -0.1470761417087332 -0.1353518203621454 -0.1471249897450227 
1.450017206970293 -0.5894414272620025 -0.09512771203605198 -0.2711427430511024 -0.1639556081621523 -0.6523239215385587 
0.005330360885177209 -0.01356183800422256 -0.007921858880864843 -0.01074749658539515 -0.005873595844781014 -0.006872853725991244 
0.02137037213513891 -0.002114898404603877 -0.003713058148715695 -0.007567305727070805 -0.01751453356875789 -0.004319248564023967 
0.02527955203479241 -0.03661183364464753 -0.02181182885836472 -0.02458687253230893 -0.02401955616890997 -0.02405828080602463 
0.0232724452773955 -0.002064294150846436 -0.00193777815835925 -0.004588702249951532 -0.004963216805673422 -0.009877909835250763 
0.008568799843337173 -0.0005797825342339667 -0.00155279774778053 -0.003679701485646219 -0.001818543166880737 -0.02415608550673697 
0.009607775226989626 -4.790873869978313e-05 -0.0003514589426504204 -0.003645511133690748 -0.0005272688231655649 -0.004166773040979181 
-0.3227803786063925 -0.01797884226117067 -0.002988340860527941 0.7514359087540663 -0.04999460174324453 -0.107957315889196 
0.0164418074124087 -0.0002852376978012756 -0.000442386887485022 -0.007004459857557297 -0.0005389733531037652 -0.001332073879869275 
0.009653656213046074 -0.007284044619857178 -0.005587919928984358 -0.006908932340667922 -0.01103211395784943 -0.008737320849199839 
-0.416474575343213 -0.08076517579070461 -0.006289958148857708 -0.05698156388492648 -0.02649323160952132 0.6062845389088382 
0.001825100254938419 -0.0001362201536731738 -0.002644760204304075 -6.506982362073792e-05 -0.01615609009951922 -3.59395962573107e-05 
-0.3462186157018538 -0.1026383798672643 -0.008484950939352729 -0.04175913772310314 -0.03379062836420547 0.5709179807022291 
0.04382561544656885 -0.003637523450928947 -0.006300679234526131 -0.02551205510475106 -0.01563433837225946 -0.01863756789982966 
0.01648921650985629 -0.01382341049717557 -0.003635603851017771 -0.00722323772446043 -0.01450031448888235 -0.01166188995438996 
0.00403699027605581 -0.003272997664217868 -0.0006091102295550838 -0.002913139263376946 -0.00213457108625618 -0.004168687261263581 
0.0128797643416966 -0.003490001035053706 -0.001463762466787896 -0.007901499762430575 -0.01321347890919861 -0.004782960100099457 
0.02408459716581144 -0.001946908842183566 -0.00379169986560153 -0.01822148378211304 -0.005468860235478987 -0.00579198098380016 
0.004497220861953951 -0.006534401022182579 -0.001360762846152569 -0.003486928392634506 -0.001621870707783684 -0.005617492254359 
-0.2462073127264071 -0.08484353699139255 -0.001343851505957057 -0.0193352871859325 -0.07371156182760047 0.5371361306637359 
0.01143884914101073 -0.03061644174846552 -0.002798192360739945 -0.005388697205716724 -0.004376076088873277 -0.005823513482371414 
0.01313989310821159 -0.01039031703038619 -0.006325723743021004 -0.01545156231778406 -0.007284466348753503 -0.02213220637766315 
0.01094070206272196 -0.004698039984283438 -0.004080170501424282 -0.01275984390666567 -0.01675992771840821 -0.008677202187300606 
0.001284891842881741 -0.0002984854127662711 -0.0005672460155308199 -0.006600817065762571 -0.002865488271886607 -0.001367232387962217 
0.01862693422527043 -0.002900279076103915 -0.002286169792580342 -0.02630860234798399 -0.008661420993506476 -0.01868099373793315 
0.02489613694544392 -0.0005926656867959062 -0.00281967280416385 -0.01579139454077811 -0.01272235881314473 -0.002469344460608521 
0.0036622645347558 -0.002314204549028556 -0.007599941992066483 -0.002083902941437975 -0.01574781538344951 -0.00208631606233663 
0.02426743690126579 -0.01393930238653415 -0.00976975706809099 -0.01825343037046221 -0.01602549637235043 -0.01930189415828499 
0.003621813520857454 -0.001319323692009361 -0.00020159986719127 -0.002300375754133525 -0.002847788060046411 -0.00306374085860687 
0.002734899084503016 -0.00111099564366711 -4.702436719139698e-05 -0.0006597100423832028 -0.005636211042099193 -0.002784274482556879 
0.01138756438242704 -0.0002336505751479368 -0.0002819974006607649 -0.003800886936443136 -0.0008701536181697828 -0.009447223641489958 
0.003822151533043569 -0.002677267911849792 -0.001960470498799447 -0.003381701815448431 -0.004306993142597064 -0.001817921415171073 
0.6026889066850891 -0.3440527834366867 -0.001253776674086899 -0.08392621542323173 -0.00262435248592212 -0.166189213543924 
0.2478378315508932 -0.01039782535405702 -0.2846542322524681 -0.003920104924218195 -0.1266526355496852 -0.004034054377171442 
-1.331468643820247 3.38209169373158 -0.5074721712149021 -0.9501559853896439 -0.6647058227661778 -1.491862142256649 
0.04730131726263221 -0.001630827790790059 -0.01088107291139824 -0.01164118842138323 -0.0355991312623711 -0.008940942463050269 
0.5442359450789845 -0.3625696746601603 -0.0144876548539199 -0.1242930364114183 -0.03701650182758755 -0.1217328786403045 
0.4122610269568349 -0.01196844707974726 -0.06427388309545597 -0.001989456798479909 -0.1584149985932461 -0.006412508956950947 
0.6558243947851417 -0.07770561570698342 -0.00119807623444039 -0.02147451784662452 -0.007707428189222631 -0.3474259179607962 
0.4362722250250493 -0.005275721708499969 -0.389837552311623 -0.001935103520566051 -0.03247503341178488 -0.004047496445122324 
-0.2005010738437102 0.5365116790487167 0.1339079114413495 -0.0943176546531138 -0.08352834867593957 -0.2086437512728095 
-0.1210495674123668 -0.0611609706399364 0.4605109897293924 -0.009419586279075874 -0.111169820480957 -0.0036932343534562 
-0.2476009172173934 -0.005275721708499969 0.2875969525083771 -0.001935103520566051 -0.03247503341178488 -0.004047496445122324 
2.809549911443271 -1.752747921770687 -0.3459543986408126 -0.6808654373618309 -0.6342139193882238 -0.9229798602432367 
0.004795537905717429 -0.00685391421628252 -0.006846602098727725 -0.006891068265614261 -0.006931257357241228 -0.006031729394652804 
0.1000297602468483 -0.01828432049817585 -0.01101522267314783 -0.09025776090362492 -0.04776266220853247 -0.06471357774456221 
0.01627927035413323 -0.00201577297361323 -0.0009530726755355323 -0.007288369463259585 -0.01167415486810551 -0.005549730264389977 
0.01731796593502993 -0.01783032341018642 -0.01130090588679978 -0.04644991719153312 -0.03130070239715581 -0.03618687321266588 
0.04792066595722165 -0.0107980447311909 -0.01742370735116706 -0.02062136613537304 -0.02543974754875823 -0.01831000930345904 
0.06112985434921982 -0.01099122748600805 -0.008716477212867132 -0.04192737459060732 -0.01694857388428317 -0.09576519083443824 
0.002378618996161526 -0.0005019557861164825 -0.0003034193298515782 -0.001092289747460424 -0.002782476708772245 -0.004142807072298128 
0.003050009019445295 -0.002759300669289045 -0.001573731048600041 -0.003259867555041042 -0.0009294507047468487 -0.003337393212667969 
0.04114205507925121 -0.02380630326327424 -0.04537580247520629 -0.05976089301120958 -0.03363094889090375 -0.02882255050266466 
0.09820678124646931 -0.01242326860445168 -0.0959135251880525 -0.05446399753771088 -0.06292061233014767 -0.02314266888997413 
0.278863816170439 -0.143985377108668 -0.2527114656817275 -0.3876256064674622 -0.2700758319137317 -0.314606381106111 
0.01122903979686119 -0.005274876837612633 -0.007603522139232122 -0.01463058271204445 -0.007151724437101735 -0.01341713574949078 
0.003545027919169837 -0.002189197672283465 -0.00370094200354982 -0.003972208685539301 -0.006001235248031664 -0.005264110091888462 
0.005504162358370518 -0.00152613345708402 -0.0009967208060857051 -0.004795339177769874 -0.005470458671782551 -0.004355239031702776 
0.01693385681223169 -0.001083767943789029 -0.001285505351912375 -0.0036598627738433 -0.006256063069843446 -0.004715237566683459 
0.2390125777565366 -0.1499252209820615 -0.1692838473948331 -0.1039563956325554 -0.3211733149118731 -0.1956242468978094 
-1.203305098674418 -0.5651653960190596 -0.322808565940491 -0.2580430760554618 0.626472820427716 1.562329535226842 
0.005117337620111888 -7.525941903937566e-05 -0.02123273071107944 -8.568154516408959e-05 -0.01339973091985408 -5.962260576086185e-05 
0.000729860801880207 -0.0001052107257354004 -0.004082769071393114 -0.0001999119628486971 -0.004018441072004548 -6.380174719758917e-05 
0.01168249460507487 -0.004314229169821483 -0.005922283534964359 -0.005521740886476963 -0.004451877421362722 -0.00688814373204502 
0.001372122919564331 -0.0004050806573050496 -0.0002988398096748108 -0.00166421306798334 -0.002193072410563426 -0.002117715887905148 
0.003995736343839313 -0.0009407436468289877 -0.003107424060741927 -0.003574320509656131 -0.002808947626643033 -0.0008753076380785018 
0.02555878819529649 -0.01189285771256037 -0.006657723207976457 -0.01265676435383722 -0.04040566465085526 -0.03337485315304835 
0.00271773731685178 -0.003071840891153757 -0.002451341129506849 -0.004342344567349884 -0.003704838083931655 -0.003258626513395362 
0.005100262384163292 -0.005776308097317099 -0.005261702895166481 -0.0042621181258555 -0.009128520445071663 -0.003293032138869552 
0.021441370823408 -0.001839269391271068 -0.003663027237756105 -0.005227054906748051 -0.01204891525863811 -0.00748394744241818 
0.2614338391101357 -0.1276537249812209 -0.1975268806527701 -0.07753680156741613 -0.1727621626072049 -0.02650552403823476 
0.004719699406781809 -0.0001042651001936879 -0.0001036113922941393 -0.008043548327694241 -0.0005305172960554618 -0.004304790881158848 
0.08504369456081662 -0.01257754984377235 -0.01576932585265951 -0.02404499324651545 -0.04691934632918548 -0.01484177975625448 
0.1068714221563152 -0.02760697437998473 -0.05376791338175946 -0.09914507139938153 -0.06560660388732503 -0.111317108843371 
-0.6061804834133327 -0.01128524813874781 -0.004376083177570553 -0.06028855629470301 -0.01194399054460904 0.9444850114650895 
0.288835425476379 -0.2291537650350934 -0.1799676304865547 0.9248406446061391 -0.3842402672257605 -0.7373591059929835 
0.05079944596840576 -0.009436830605629524 -0.0327259991431197 -0.01315053324216359 -0.05278669275675069 -0.01349413703879312 
0.0128649428900572 -0.0004420982326520176 -0.001175197265239329 -0.01946441384010492 -0.00194765728217693 -0.001855991016781632 
0.04954124622526199 -0.9324281081125502 -1.013434646566669 0.06198335527155738 0.2203355118997943 1.298219091361617 
0.2343637518273294 -0.1378795575056229 -0.2396424169890052 -0.1288418548237588 -0.3941722741389831 -0.132222238168539 
0.001203149752471888 -0.0007691378863368996 -0.001788514471449779 -0.005552821999746623 -0.0006619524295703538 -0.002520610577625529 
0.1558610802932167 -0.01816969183556251 -0.01056969768115373 -0.1120968189300417 -0.05512078230994612 -0.02955411328815912 
0.0006560169348243425 -0.0003977125382858225 -0.000409843920209578 -0.0007598117148124496 -0.0006388161518148409 -0.0001436119354912494 
0.00471329377780236 -0.0001659589297329601 -0.0009176287069553063 -0.002569148194125126 -0.0005921973524082807 -0.002638998006597863 
0.01573702831495798 -0.0004092530123794724 -0.0007268723445671137 -0.01576796024576066 -0.005543360546740761 -0.003356143126154086 
0.01734036297929838 -0.005556876398809074 -0.004039083469885434 -0.01237051471234356 -0.04817652631551081 -0.02550349417585322 
0.01980967038172702 -0.00284130881293977 -0.003625622840855984 -0.006634578653786444 -0.009505777563386435 -0.005105511094225699 
0.06641805938815862 -0.006741260730255163 -0.01135366600562916 -0.00675618326898425 -0.04355150326898087 -0.01366829348602383 
0.615683719929816 -0.1476791759515595 -0.0327799655752093 -0.2775310950229411 -0.03768203164506579 -0.3452761082238291 
0.07734322757359054 -0.1063811532573674 -0.06578817211788184 -0.08446813390690495 -0.09441413643396104 -0.05280688990767662 
0.006396589124884607 -0.000458735573322863 -0.001415635094624274 -0.008455859053536009 -0.003015724844285566 -0.001036559989008065 
0.0002203092868721436 -0.0007875728407542945 -0.0007379660183782285 -0.0007645634528738367 -0.001601115370743062 -0.0005739690256365984 
0.002646764889886369 -0.001473878301192938 -0.0006475032329468137 -0.001277586535285506 -0.0009986777848226764 -0.001712421574975107 
0.0231196612534 -0.01558306398095819 -0.03643675503041695 -0.02946591448055886 -0.04133850879502621 -0.008593357711705548 
-1.07081584549545 -0.8925625298515278 -0.4214902323487824 3.473864133851528 0.26878439787047 -1.353515879662951 
0.01062809700715761 -0.006724722586343951 -0.002562090164782409 -0.01477309406046863 -0.003837106023959753 -0.00537252504606424 
0.06401041812369451 -0.005656696339314448 -0.0160100912060499 -0.02975105764554219 -0.04058170738928005 -0.03232359294486817 
0.01123104231436932 -0.0005089486588993064 -0.0006088079817835944 -0.003068928256678863 -0.01177480588041911 -0.004563688043287617 
0.003222701172979473 -0.008979547806238703 -0.002526239749339464 -0.003672747670347893 -0.005343006199466547 -0.001478618537861457 
0.01444677497767752 -0.001918598857532553 -0.002809043155544799 -0.01069340186907708 -0.009780512611161862 -0.007230718481225992 
0.001583145140780447 -0.0004057180077418851 -8.712572628860096e-05 -0.0007195041323212038 -0.005522415007442896 -0.002356854824888681 
0.02753403907959741 -0.006685851669140125 -0.1319280512681578 -0.006649908274114782 -0.05080683685250876 -0.01942480338355338 
0.01102775174644131 -0.003652959068852105 -0.0264329857146511 -0.006492346259706634 -0.01812296529967265 -0.001469456259813261 
0.09565874094683925 -0.104708942924688 -0.1643583030619862 -0.08119335595153973 -0.1030439058591872 -0.09270915307682399 
0.00423654283311327 -0.009239995714992464 -0.003741915587738925 -0.006582144140759804 -0.00229346100598369 -0.004916520517868139 
0.004208364694272959 -0.001440318360274556 -0.0003687236163305961 -0.002048417611428105 -0.0004627945677773047 -0.004142967663562452 
0.1084100224164385 -0.01296805680455949 -0.006615570586637505 -0.08218079196944254 -0.05347814410377776 -0.07807700111144839 
0.08031662062095227 -0.00229470297521415 -0.006757591120490107 -0.02858229484252626 -0.0310789457098246 -0.01595079491211036 
0.1529040627380935 -0.01378083458119133 -0.0006877651318880448 -0.01565626044114873 -0.001104366972524367 -0.03846768624851716 
0.02439994855562658 -0.01753064813242322 -0.07896148324845779 -0.01939846234564852 -0.04409215736794413 -0.01987970638704798 
0.005480536039756036 -0.004685126629609622 -0.01029928589750615 -0.003667629461424522 -0.006059683129991496 -0.009777907953617842 
-1.666940511555282 -0.2924400161920009 -1.23053875180146 2.031688724262951 2.434851138908539 -0.7256105772283248 
-0.6446151858236074 -0.3145543141530984 -0.008743606645299849 0.775923051938031 0.6163683689337107 -0.0697681118739145 
-0.1186861415173832 -0.07562557825856137 -0.001193361600406079 -0.02077767377508152 -0.00718249811794872 0.3310752177416815 
0.02611657543674536 -0.03382216121070624 -0.08835002345848618 -0.01006772106143665 -0.04272509709707493 -0.01245355432675121 
0.002859212387018606 -0.002241434403414852 -0.0009999515866237706 -0.003936167097390088 -0.0004286240888142049 -0.001268687660316058 
0.01737650236176303 -0.01069485688409827 -0.007187051361566711 -0.01832715420559937 -0.01195289879586049 -0.02404645393014281 
0.02984614524100555 -0.002493028367303491 -0.001999843432667572 -0.01602282589505706 -0.01279003492212225 -0.009599934826505075 
0.4874529828029532 -0.2603459875788311 -0.1026302065104214 0.310423621479242 0.2628398743897806 -0.3592813885997141 
0.3123921915411136 -0.2384342950288612 -0.1243014500490864 -0.2409583954984236 -0.3665329982115942 -0.3005785860373873 
0.0005299496899743559 -0.0004079663337553534 -0.00147317410563299 -0.000308778272464716 -0.0008552584350415305 -0.001038926275655183 
0.009136349434588308 -0.001596244410374283 -6.695605486500764e-05 -0.00282835576399526 -0.0007823487842855511 -0.00614618495752673 
0.002275560009546215 -0.0003458630010057305 -0.0003021520497403237 -0.001118943327402095 -0.001967379579264199 -0.00213785880078469 
0.02374249761451179 -0.002432103919156997 -0.04106488732576958 -0.01966759539231008 -0.01853103554891978 -0.003541535868003379 
0.06649013314187657 -0.009003272688324746 -0.004969246677375702 -0.01029982467049675 -0.05204611281772157 -0.01058745580108326 
0.01808892389070418 -0.0006078396587194377 -0.0001040868640217113 -0.02008230930399519 -0.001202240755047887 -0.003879951071406042 
0.2858370920989403 -0.02713744032401011 -0.009327679146746159 -0.05054831069538118 -0.02286632379867661 -0.1844297121454234 
0.005556437896985504 -0.0009364220083007592 -0.02681534162143287 -0.01044964901266556 -0.01118548674472331 -0.004828662093163375 
0.1903248186247221 -0.1933642674311146 -0.1620659007593816 -0.2252607517047031 -0.1968054379411534 -0.2021456722491791 
-0.1008006858262969 -0.003372053231444089 -0.004157551640057046 -0.05765585467097926 0.6003679577500352 -0.2799988991801185 
0.01096245120824427 -0.01708274729910753 -0.00790142331449226 -0.01494850924209041 -0.009323443701341479 -0.0140730430131112 
0.01200915594798333 -0.004860949359625597 -0.002837941834095526 -0.01662874171217792 -0.008823667165576872 -0.00765694431360448 
-0.4442591838485505 -0.4520924916805692 -0.04024148151425976 -0.1507326759955986 -0.03389620338882074 0.9115188099723958 
0.01053791710150392 -0.0002112337778317804 -0.0002081376493750123 -0.01742378990493192 -0.001096192778510233 -0.008927774099395895 
0.02320901957453328 -0.001044792185922593 -0.002235190841008638 -0.01236893362205146 -0.01043655434961062 -0.008231412599796576 
0.0005880624990544411 -0.001112852655261784 -0.0004099754636428203 -0.0003450693478908076 -0.000786878424562537 -0.0002598191744058967 
0.03536699768464078 -0.02389861449508402 -0.02430185113111167 -0.01362316940317876 -0.04227765781952898 -0.01215399395315302 
0.01193870212905199 -0.001037087757617918 -0.003523688658332739 -0.007289877052894241 -0.009653203969709251 -0.004428707139526812 
0.03424095636816454 -0.0381848457792015 -0.02104721843346586 -0.0412926894563091 -0.02124784764284677 -0.02279870996352502 
0.0752800746496594 -0.001196810125801606 -0.002464342850968234 -0.06320748273516011 -0.006303629525081188 -0.02717868201998376 
0.03968111853306576 -0.05139863632843 -0.01319695937198375 -0.06951692214281167 -0.07820729552683284 -0.02897032781261339 
0.006994620743159373 -0.004268507926562182 -0.00199207279516526 -0.004157285984048379 -0.004990698935594224 -0.001803212095989526 
0.09845126483038048 -0.003200385050450499 -0.004698436923270398 -0.08857359483348569 -0.01457544261455203 -0.0180786260560758 
0.1785322593175948 -0.00673258495080989 -0.001495891726931013 -0.04481041025974819 -0.003020539820512902 -0.07050441772087228 
0.005969533331052632 -0.003584742960707635 -0.007464983928134336 -0.001799857956352013 -0.006678217477493195 -0.00487918774211574 
0.009161293457946102 -0.000113821822307557 -0.0005347499820959013 -0.006652189115770366 -0.0005769928741383444 -0.01122204159208358 
0.007648467371616744 -0.001041658279486962 -0.0001170308639156664 -0.003746287553545677 -0.0005916415707117907 -0.007995495813070269 
0.0205531746072689 -0.02404366228805961 -0.01523031718254394 -0.01963362644680336 -0.01342859179797185 -0.02170645561219748 
0.03757862745843915 -0.08511265945155765 -0.08237858253672069 -0.05447936996450973 -0.06040128114750597 -0.08497912252953919 
0.0243859648680209 -0.02170953657115879 -0.01712450770707764 -0.0232733472789052 -0.03679811734257642 -0.02058879835405847 
0.04119766822213727 -0.04560764366675051 -0.0313297780792276 -0.02894408674561059 -0.06668446707151267 -0.03061816911347098 
0.005728405328337858 -0.0001741809804363994 -0.0003341169511096732 -0.004599454614554513 -0.00960420259923388 -0.001883748830353 
0.09103245419479768 -0.05796918640608995 -0.02601134761838034 -0.05726300593345541 -0.03984193562510537 -0.04680432554251251 
0.006380009062365628 -0.004247464359657113 -0.002245111928569489 -0.003645939549065912 -0.007958492621516645 -0.003971807605553685 
0.2726300409605175 -0.3182252179103366 -0.3083816685232519 -0.2650863301132106 -0.2823773357403646 -0.2704592048077531 
-0.6698147903474471 1.261938350619846 -0.1494845427867194 0.308032200023698 -0.3181264384434781 -0.5719212119495779 
0.003798527982079129 -0.0003794364615161825 -0.0002422536879788478 -0.001957512430446576 -0.01232902455754909 -0.0007734395042579986 
0.003098487766272109 -0.0003209064121056373 -8.793711863816426e-05 -0.0003833656751719578 -0.0003455033678698333 -0.01144860108195449 
0.04518037412773351 -0.03572995028550826 -0.01873424974902751 -0.02065318122029696 -0.05631281807221127 -0.0180808054573146 
0.0002586297397893802 -0.0002521939238502351 -0.0005053509190678378 -0.0005584273475661578 -0.0006235195638471942 -0.0005456979804143524 
0.0006784751635778038 -0.0006707869794993358 -0.0005570751760826687 -0.00099749868589842 -0.001324399278525358 -0.001001554429595074 
-0.1695938024726031 0.4944623019078939 -0.006635209399053607 -0.1510820689699963 -0.07258776256456453 -0.1935431671033519 
-0.2315780411643345 0.4330879792877224 0.2987314861399157 -0.1620105017571606 -0.07802576781323801 -0.2558542064222618 
0.02886257090390147 -0.002011578197376548 -0.002183700395951361 -0.006204550805261762 -0.01717459681881338 -0.01066788729372573 
0.004636205957215533 -0.0002595505906954432 -0.0001254194813213084 -0.0003464794205586565 -0.0002960775917113605 -0.01957145847568522 
0.0053882097960707 -0.0001059120469686458 -0.0001042237438805562 -0.008869302308007284 -0.0005524475687205613 -0.004523824402319788 
0.02959484356544429 -0.008173031042280605 -0.005103676550120733 -0.02270986539044281 -0.009520231529237913 -0.004187743142194844 
0.005080872459454918 -6.749972860640817e-05 -7.373175369813833e-05 -0.00633268644358755 -0.0004091915622210192 -0.001492160619265054 
0.002075552540404 -0.002071993763307716 -0.001036886940171168 -0.001283612532767062 -0.001541207902340441 -0.0009544994969751876 
0.01281620432592039 -0.01082643918685582 -0.009231384922254154 -0.01516209334174958 -0.01050354230215416 -0.01476106310509604 
0.07534540660970414 -0.04439136539514514 -0.0346181002413671 -0.03682233220655309 -0.09729099804882844 -0.04794578062117872 
0.03445698407594613 -0.009775970269514423 -0.004395144035726299 -0.01889712294605788 -0.008065502627688927 -0.02725608791230354 
0.009578145254482685 -0.0002503710052450208 -0.001293763165825879 -0.0009848884896100929 -0.004721869605502675 -0.004056211906147102 
0.3822077279279688 -0.09494516619183642 -0.02808909889737838 -0.2083941048805361 -0.03320881832865781 -0.2226372574684753 
0.002268730745845542 -0.0003152724523895818 -0.0003505524560915669 -0.005944368912260756 -0.001596907286605613 -0.001462700734264939 
0.01388229744719165 -0.003429549139033167 -0.0009336164517787427 -0.003000346975194999 -0.004006749644511748 -0.01122300247831369 
0.001223470295498211 -0.0009547939129356538 -0.0006397288817423224 -0.001171522907289346 -0.0004752433598994 -0.001438272556643608 
0.0517733787439459 -0.004461124232501178 -0.01006566050282051 -0.02959439597584702 -0.02179775952489275 -0.007724464393057876 
0.01239005338575918 -0.0005495010964399904 -0.0003761179577394641 -0.002978552757775035 -0.01287320067890945 -0.00278672808591842 
0.003903407607547782 -0.003952873566342748 -0.0008186216304052925 -0.006330912952201281 -0.001169975542758443 -0.008958014713486638 
0.004142587674041636 -0.001449536568296914 -0.001323669972336102 -0.003960022807274699 -0.01942859501493724 -0.003838850532347431 
0.002646764889886369 -0.001473878301192938 -0.0006475032329468137 -0.001277586535285506 -0.0009986777848226764 -0.001712421574975107 
0.01753900371881492 -0.005480365088953175 -0.0003446294351163164 -0.006429350761686321 -0.05860159144584113 -0.002989522492041923 
3.072987617710374 -1.705251689012065 -0.6007934003311116 -0.7499172270137079 -0.4933208518361034 -1.664730872312439 
0.0003452388197938679 -0.0004529077631090262 -0.000480160129169317 -0.0008241842323398711 -0.0004355097199963725 -0.0006022185390462317 
0.002052328173377361 -0.001896884937523253 -0.003591400262321437 -0.002153039586093325 -0.003963444025077183 -0.004225521522586893 
0.196073390856388 -0.04656510283567754 -0.01688133906829851 -0.1083858106428462 -0.0239797161785977 -0.1156676872818656 
0.05823284876336133 -0.07836589223860967 -0.04844347815825479 -0.03512998304578326 -0.06823330201197546 -0.0253585931524011 
0.01750991388552788 -0.02614327736250357 -0.01670782937730562 -0.03388934127455726 -0.01912151032333503 -0.03564308723248493 
0.04938205957887976 -0.02672157276152671 -0.009681801025646643 -0.02756617628723528 -0.06156844793798727 -0.03458405637488467 
0.02644126689509859 -0.008361549322999661 -0.03089247583189136 -0.01100410157628274 -0.02786956659552935 -0.03155647545645363 
-0.1490860895626438 -0.2094877924000791 -1.448966579431615 -0.2395552679775032 0.2232365092355769 -0.3286298565082277 
0.1077290323711011 -0.1965508354856501 -0.1700358805783915 -0.116649474803022 -0.1355088751034792 -0.1156775374140676 
0.001271472444102674 -0.000707641041595005 -0.001886709136683097 -0.002656460736712143 -0.002910181527913324 -0.001480418758029171 
0.002179582860289791 -0.0002581303878537233 -0.0002362457826639583 -0.0009221897449817431 -0.005436630661349318 -0.001226811478329518 
0.03171387372556892 -0.005323770437871344 -0.002910847845169701 -0.01502119178030159 -0.02827260128225902 -0.03143562552830718 
0.004939205831082752 -0.001360219752538318 -0.001662173762587765 -0.005141941728752524 -0.005043303377404765 -0.006887815957036136 
0.002694366247741726 -0.0003855688492862036 -0.0002902528697177288 -0.001335732369629804 -0.001432646630725932 -0.002306944733751281 
0.03563413514467403 -0.02333451329439357 -0.02878322912256906 -0.02537314948130525 -0.05421443429093848 -0.04375086555401333 
0.001716052952664515 -0.001721578164682627 -0.0004304797113255958 -0.0008506222657273535 -0.001372490775981662 -0.002519462122797522 
0.06033878519568661 -0.08655762590153719 -0.04980848360808014 -0.08529421776145243 -0.0762817108957712 -0.07533893437488198 
0.08857513551558824 -0.07811482137809561 -0.02910240111231736 -0.07388834383758264 -0.08277497218947187 -0.05814546454523707 
0.009009299706500022 -0.003648909461308761 -0.001577989727681601 -0.003039352748752209 -0.005609767296152419 -0.004986829347415081 
0.002947689811029818 -0.0002329045240990057 -0.0002514361924831817 -0.004869797011730246 -0.0007681728684616909 -0.003210891584858436 
0.002275560009546215 -0.0003458630010057305 -0.0003021520497403237 -0.001118943327402095 -0.001967379579264199 -0.00213785880078469 
0.002920583447603773 -0.0002327584448975604 -0.000251321678638946 -0.004863184381934853 -0.0007670076750936054 -0.003137146461607572 
0.02714484321377388 -0.01736354034746593 -0.01400328895912247 -0.01363742206096877 -0.0239364964739967 -0.03962906635743466 
0.03452301007787054 -0.03372669523935434 -0.06666233946893335 -0.05722431829531508 -0.05386853637848646 -0.04133433761996548 
0.00298564105606332 -0.003554847712372288 -0.003022797721533671 -0.005596031634346736 -0.004349736817112828 -0.004156149907385603 
0.004328557624943195 -0.001560325732023884 -0.003873290755895346 -0.001484262076114585 -0.006885471997025086 -0.00444126439400281 
-0.1044279543656379 -0.09716635510865161 0.4840900322962199 -0.009001437201216551 -0.1015265515639588 -0.003594248982982136 
-0.4169000178181373 -0.06109860826829127 0.6091486770231022 -0.01282725983370357 -0.2016441650686314 -0.02697166238923809 
0.002446668052708989 -0.001859125389340175 -0.01021842784014415 -0.002467349873611789 -0.005798707553656753 -0.001090521695572949 
-0.2674024485498421 -0.3774750079438877 -0.3251299340895727 -0.2578118046741277 -0.32477262974129 1.169290661696098 
0.155167325589831 -0.2904979758506126 -0.854493005194037 1.465241858809653 0.2817691385134598 -0.4502976769272692 
0.611164309398993 -0.1018836819158931 -0.004810558652113552 -0.08943237171879054 -0.001978439636339241 -0.1478134273993215 
-0.7733138575781777 2.006064464854715 0.1099052991283676 -0.4621366345784315 -0.3218554534988865 -1.03673449328939 
0.2659043439118557 -0.01453235512078407 -0.08498597047913806 -0.00413476219754616 -0.06366983497993914 -0.00434114251578018 
0.08472803405747842 -0.0002828839066380083 -0.03620690287745577 -0.0008217027478916871 -0.0296640199363427 -0.0001377814170526303 
0.01632377492745301 -0.001772960993381153 -0.0006102471607899757 -0.01207776758554056 -0.006293603562513262 -0.001500872043852357 
0.217683772075505 -0.0156427758230226 -0.0007555353567384236 -0.0403206254571116 -0.02871614591424768 -0.01331865183378142 
0.3908182909018718 -0.01467707253076995 -0.03961631422112039 -0.01962096949093386 -0.01125041553379794 -0.154327877288003 
-0.2887561245076025 0.1223830216273991 0.6553258052303802 -0.194019577201507 -0.2329429374245845 -0.1484624086073069 
-0.2972116007424702 -0.01000209656330006 0.3152574030591425 -0.003810590588733341 -0.05271925356298082 -0.007909029390796223 
-1.686046255346372 -0.7807774682403356 -0.3112609106675998 -0.769116595337114 0.2977127937617559 2.450871412581503 
0.02667070560308179 -0.009942927620553361 -0.0376370626342458 -0.01355072985890091 -0.02302465102672195 -0.003105771573113294 
0.01097170008071446 -0.01376588740890342 -0.01190222771611578 -0.01095158070248508 -0.01005106948429594 -0.0130374148205961 
0.002813548028741738 -0.00940517159577005 -0.000549094113065913 -0.003106768151004456 -0.002463054921359794 -0.001213987348619524 
0.01117828609322142 -0.002786424896043836 -0.002076199906481307 -0.01251191126958583 -0.01573248550107801 -0.005998299254448651 
0.02146291399105505 -0.007150331902285795 -0.004126237021908371 -0.003311372695651803 -0.007645959972980025 -0.003323972411690915 
0.002983771597827656 -0.00160503418353509 -0.0009131321550285879 -0.004373707396491015 -0.0004533367690284865 -0.002250456872507004 
0.01878307914748137 -0.002496281587764471 -0.00213548290546753 -0.01875422050540706 -0.005828428469882798 -0.008990564777345066 
1.447235391259995 -0.2141854628823623 -0.04060261440056537 -0.4738347889059959 -0.089916815132842 -0.8497723354731745 
0.02492805777335773 -0.00182237657917512 -0.03236055520143614 -0.005410459139494304 -0.01683204897137655 -0.004625668105619678 
0.01900417713721179 -0.01735415094949625 -0.01289611270029715 -0.02799110925062662 -0.01319392042614387 -0.01903311296466094 
0.06983067349568713 -0.0003001109433648829 -0.003631151190931778 -0.0303216298208272 -0.1236926826242876 -0.003425557589961444 
0.04264771833349314 -0.002473754302914456 -0.01338630105533074 -0.01386031162847803 -0.08813669132545568 -0.007695479735006671 
-0.5537714190619439 1.471831450354699 -0.2607030776226012 -0.2304454431813368 -0.2956661698534165 -0.3954561000866458 
-0.2440010325527028 0.3095323014374101 0.5264101208201409 -0.02625690954749919 -0.2564712133119953 -0.01069449613756928 
-0.9513093083608269 1.913383277796735 0.5506525979450263 -0.370665328179005 -0.2131363504477099 -1.071961489246916 
0.01331582245748683 -0.007573442740012164 -0.0005043636196714079 -0.005337413445152371 -0.003968882246068101 -0.02020064890065604 
0.04759503377967546 -0.004782937728350284 -0.00321532470303434 -0.03781607143902694 -0.02942385895780456 -0.03873895725950188 
0.2249979002856672 -0.01132775938842603 -0.08291512141211733 -0.05223355625210271 -0.1774842497068267 -0.04312724217378787 
0.02871809364635628 -0.003362003335635675 -0.003703914081744952 -0.01127264347475836 -0.01322596361513958 -0.004075740883242554 
0.02933154978111235 -0.003447790858014867 -0.003082461210638815 -0.006700277015199995 -0.01643560902576495 -0.01203251174493648 
0.0009094927229304211 -0.001395765498557269 -0.0007103075154356938 -0.0007643691523608373 -0.0005126857035857714 -0.0006722131067518979 
0.02361018540196926 -0.003105414703082534 -0.0004662465858062686 -0.01420810455670157 -0.01120772860103063 -0.008255628986256737 
0.01303485661377097 -0.002610362883346059 -0.02710752805027619 -0.005380952011206783 -0.01659245102468958 -0.004134360926911434 
0.004207011764541521 -0.002168471013716896 -0.0005053784858055 -0.002589085693869893 -0.005903080614834415 -0.005898728211091813 
0.01091747851461932 -0.006377564792895497 -0.002987646784356758 -0.009580751225341091 -0.005386657147298333 -0.012278835859773 
0.01793675191925791 -0.00179300932198115 -0.02125243461562433 -0.0122437904809587 -0.03226748429257133 -0.009198763737136713 
-0.4157189578553194 -0.2620733899364089 -0.005708424607133079 -0.2777934549481468 -0.2318880786347552 1.138233317716793 
0.9320464986287883 -0.04254961097400937 -0.5132809317613443 -0.03938991666240745 -0.2211195681802433 -0.02439196552187641 
0.004253741369040572 -0.0003962144867307679 -0.03266586819199346 -0.0001895778620952303 -0.01240220759376192 -0.0001040797572309737 
0.009125864341235959 -0.0001288629881451012 -0.03372327351498434 -0.0001149261257330188 -0.01065518360250546 -5.436879168184425e-05 
0.01797203821602552 -0.02349802758044487 -0.004203451592543315 -0.03127812535861941 -0.02226474370490888 -0.0205864840040239 
0.005910389427429311 -0.005012410803288789 -0.00370213160991558 -0.01644222778040813 -0.00528763775516925 -0.01049346051014373 
0.03623195042380488 -0.02373610800086141 -0.006983983183898115 -0.01289332360047433 -0.01950686257791511 -0.02363022032378375 
0.0186776460007058 -0.002671864840213839 -0.00118139773438592 -0.005194648454845876 -0.007817196793279442 -0.005509966288907973 
0.06185734726749961 -0.002302731757737275 -0.01073293720833189 -0.02533412216309362 -0.02594946571611004 -0.01951534662358526 
0.01149605291671722 -0.0001985089882246546 -0.0006597721151954764 -0.00843150829844661 -0.0009922670031341592 -0.005065152076105028 
0.02858680637019097 -0.01426658078600708 -0.009867819013160717 -0.01666777294066728 -0.01512800893697388 -0.01811912938084517 
0.009953659454661097 -0.0008428648328670501 -0.001807164899643226 -0.008810320807337764 -0.003208650799765804 -0.002245352721739108 
0.03897157291065174 -0.01732856713160374 -0.01549052267383963 -0.01993257370695042 -0.01946649540840636 -0.02873760117405106 
0.08431699583671244 -0.01042676443052304 -0.0006334864893681772 -0.03023601897522302 -0.001704226197855151 -0.04191552467773447 
1.943031743598953 -0.8306387264227892 -0.2803013613756395 -0.2842579183352306 -0.5473876453163801 -0.3495335074918676 
-0.2146519525384432 0.5408892485945578 -0.07856193044201649 -0.07018538570034903 -0.1133057360978836 -0.2117146294962888 
-0.3518099933994608 -0.1078572296438053 0.8336190284231628 -0.02276591693611973 -0.3122622217695124 -0.01523355240790754 
-0.6083803793564222 1.150477611232597 0.5114013717617609 -0.08145550801023245 -0.2594923872697107 -0.6235069369340952 
-2.469856372931726 -0.000830734143453256 -0.000190201726963512 2.150116322845557 -0.003918975600384983 -0.001785308844460286 
-0.8665650878845903 -0.2103319777356479 -0.1833891056215748 -0.6766460580752116 1.899269847971543 -0.06124724713845687 
-0.5156485954458929 -0.6004271581144321 -1.387581494001235 -0.1915456904177451 2.433264678561735 -0.2496670372414377 
-1.358388319431989 -0.01305847271494299 -0.001869649143801744 -0.06964420423396316 1.334507433664154 -0.3559103682341994 
-0.273752286231316 -1.714053709851132 -0.2128435563460588 -0.8508977863962709 -0.4440216983297012 2.070655121994234 
0.28530156611428 -0.3735656178854839 0.04124498102839608 -0.1484610578220607 0.07627009884075486 -0.3692237519676539 
0.6063763020231605 -0.4990555461443868 -0.9983867073849035 0.555790254380141 -0.3628317498071389 0.489838488235151 
-0.4005724196186258 1.081605803984723 -0.1500433307165026 -0.08112888887423307 -0.1806820475781039 -0.1585096564007177 
-0.869006637330953 1.898095672006357 0.5826763461552704 -0.2084617879324614 -0.3347692935599597 -0.9913057793149418 
0.7933881058670975 -0.4033277832642548 -0.1326423254652047 -0.7005521622345529 -0.6339087339929588 1.315449798772446 
1.051864183824465 -0.3659048871734133 -0.02938496768136922 -0.1277740947434 -0.2461441312898857 -0.09955867909980182 
0.01528411730649388 -0.005403381203067862 -0.01112756503571401 -0.01215564885419048 -0.01878241561577906 -0.007803674636467669 
0.05871061311684657 -0.002601063289179052 -0.003650289409133747 -0.03462485635471424 -0.02937293113704952 -0.008905058979341726 
0.122011867337103 -0.007735947856533085 -0.007264679590255433 -0.008400646553761331 -0.06700787216015183 -0.01810942135090362 
0.007781772766957606 -0.004694196793946439 -0.005590065749735592 -0.006496831556377541 -0.01214459971130934 -0.004412280960701434 
2.243280652926761 -1.415181864846843 -0.1131072729371286 -0.3931062184146609 -0.2762784360957221 -0.5905317116913226 
-1.069822506083186 2.68847578013982 0.00515834831563039 -0.6542581577805007 -0.5803278006626128 -1.010848180715846 
0.04069976802534542 -0.007310913747337148 -0.01310844124788676 -0.02377383550860483 -0.02702565974385833 -0.006909683702755361 
0.05187292730683024 -0.004317976536656839 -0.03996902426260741 -0.008285046979473364 -0.03530517115225053 -0.006198553057423034 
0.004008123816758604 -9.831570010907852e-05 -8.936643989949964e-05 -0.0001892653405512097 -0.0002970560544976056 -0.006257114442543002 
1.505890500103684 -0.8492925200806823 -0.1129669554769561 -0.2461723023243239 -0.1615881696689318 -0.4466650001005401 
-0.3021229849495327 1.235298764247214 -0.160126988188176 -0.03681060249353021 -0.1844510682952383 -0.335298411456306 
-0.3902372769612055 0.4667499887236993 0.4247027899215429 -0.09084535065501947 -0.1726433323845586 -0.2463970094914139 
1.378728410099274 -1.100280688278152 -0.02324281264932006 0.3682790721485638 -0.1981907648583275 -0.6532471655792758 
-1.484809520045168 -0.6751630955209934 -1.507010811362049 1.646646843705728 2.779262018030545 -0.5114007939185209 
0.02064747185874277 -0.0009146227195937077 -0.05122390446572667 -0.0008861398840153324 -0.05220654072850384 -0.0001741159126236546 
0.0410555498502445 -0.00327351496193547 -0.004518429519130844 -0.01767335248762216 -0.03191324965777293 -0.01093065758743739 
0.7815337018412425 -0.632566680435639 -0.1334730929764665 -0.4833191550992608 -0.2868401233861097 -0.7286523890201754 
0.05495757417258269 -0.05038524422325334 -0.05174357643519947 -0.04841667624100156 -0.09032063039112696 -0.0607653584637176 
0.3333445711792503 -0.381086235472779 -0.3213479315411876 -0.2673443437983361 -0.2956471034577129 -0.3044093782355284 
0.005094095645356257 -0.004636761684064555 -0.01247338865813434 -0.004682308088176846 -0.009619759652999499 -0.005413148781187949 
-0.9317027063081558 -0.3202512375261442 -0.0452862924267526 2.11720664692362 -0.07331486939374339 -0.9747636853013137 
0.04678944737829176 -0.04613611670967237 -0.02660047928419629 -0.07201934800200564 -0.0305427656276105 -0.04685418292694286 
0.005642499181193775 -0.0003283079139431952 -0.002484902411570595 -0.002340580101142217 -0.006140536747573725 -0.001475681550793972 
0.08456371343061156 -0.001957994664840645 -0.002670751984178067 -0.04526984688630111 -0.01856813166420846 -0.009593388173984755 
0.05446305348119751 -0.05695923270972674 -0.005768437094577116 -0.05239044742902024 -0.03546026973260723 -0.0244055370694066 
0.04515758454514656 -0.004951447532173168 -0.009264721504011872 -0.03910708398451066 -0.03185691942009291 -0.03382567922567867 
0.02573556949535828 -0.002001754673980189 -0.002341311753422609 -0.01005157220353849 -0.01134556087444983 -0.006141395771408466 
0.01558474176585963 -0.008494904938135196 -0.001479951004057355 -0.003397852197740558 -0.006752410416055118 -0.0006321469416913684 
0.02443562348244661 -0.002981867690329555 -0.001819184826751461 -0.01741122646485738 -0.009588007139857208 -0.01151856326601169 
0.01073649509819879 -0.003289114797881397 -0.001490770329444214 -0.007692290114667975 -0.006352471943275057 -0.002930067224097349 
0.0200619241210426 -0.002836667761171342 -0.005587359189963927 -0.0145588985424452 -0.008725100332964716 -0.005457248113149576 
0.3720178402049564 -0.3732791700549772 -0.5254158168370344 -0.314676269074077 -0.4638011609510759 -0.3171644486763588 
0.00379812492016699 -0.0117533802574045 -0.00488171890629917 -0.01213957737661239 -0.003220597964535462 -0.01023438938147337 
0.9729773513220898 -0.3719867116923415 -0.04035050867959864 -0.1424919796639778 -0.08255756993521829 -0.3064164425605174 
-0.288937398524931 -0.04299048147636202 0.3590680561627133 -0.009640552989398445 -0.1305693685521604 -0.01670586487861012 
0.002384451471878155 -0.000254367266544887 -0.008180965210393422 -0.0002987018550307618 -0.01041569919527236 -7.716086980855587e-05 
0.1048494417830348 -0.0304671427040181 -0.01656339396746692 -0.05423953674813254 -0.06238224268494307 -0.02506989232793071 
1.956534889606397 -0.4407771854569844 -1.075970690682262 -0.460742228648319 -0.3238577511094293 -1.282599736256723 
0.03051631367515985 -0.02686484243062623 -0.04160781293474786 -0.01908684285789056 -0.0467099647395738 -0.02825695031782058 
0.04722525804348517 -0.02807257681688179 -0.009747250951032063 -0.01787243526318225 -0.01827343595068252 -0.02874734682274362 
-0.577286575684656 -0.5182036126799701 -0.02143953562595933 1.57341326843147 -0.1970249970265091 -0.4484896618852557 
0.3997321092735885 -0.1129883169708138 -0.4124782539022339 0.7672024853662246 -0.2708433341660164 -0.01717251872056878 
-0.2164022276263656 -0.09196404341000927 -0.8099248397389075 -0.03006201981615667 1.49001981254707 -0.03343227524630749 
0.01978929077020289 -0.02254890147576597 -0.009782922693098722 -0.01283345403052661 -0.01535911459052568 -0.006494028909963572 
0.006968309107504502 -0.0003909814567427203 -0.0001401582137597855 -0.0006188427654309928 -0.0006586616942649627 -0.02390291462575762 
0.007649057110147514 -0.002746620024853506 -0.0003452239521935714 -0.002081264081799344 -0.003426981269260628 -0.02739697314561662 
0.01025410420677098 -0.001396570742091329 -0.000863461152601712 -0.001365279150419476 -0.004234598744605565 -0.001296816803055334 
0.0178934052896401 -0.023211041989286 -0.01005301055423805 -0.01102150521689045 -0.01867678255816996 -0.02298361521190857 
0.007746198407123779 -0.005974391752707284 -0.003238941444603083 -0.01021043596193159 -0.001929230079637048 -0.005821914155819786 
0.005342932286208251 -0.0001062639276706045 -0.0001039770032811815 -0.008811960880068019 -0.0005456234239883722 -0.004508007318104771 
0.01067489342413354 -0.0007567125662259079 -0.001707080160041685 -0.003258112065989599 -0.009716280429834724 -0.003972814465459244 
0.160084575808945 -0.01155687744509803 -0.01519856951503598 -0.06405573498137021 -0.03451601862250944 -0.02592649596917529 
0.004686982629518065 -0.001848783370155721 -0.0007937103039802264 -0.0005691798576809444 -0.0006352147501313061 -0.0005377908190403936 
0.0232057743906681 -0.004552414379710739 -0.0009268126993947838 -0.008314401063504513 -0.00415631188054987 -0.01228599436795623 
0.03600006828647589 -0.0149855247011315 -0.07064055966273532 -0.01930278379618059 -0.08154435926835407 -0.0221921899740458 
0.07611004869855596 -0.009072003382730174 -0.001428371255163177 -0.03231337565864871 -0.03696204373016939 -0.03725645154820727 
0.04640196784309365 -0.005427068450281942 -0.005130399275367616 -0.008676705869647404 -0.01738663737387412 -0.007957765442267652 
-0.8311710212797437 -0.5790034499722981 -0.1466105585476831 1.75743334920738 -0.2257510636607505 -0.6428541993591784 
0.004608713131028675 -0.0007307464756419236 -0.01774028666678072 -0.001029249462660436 -0.02473838808987205 -0.001543364110504084 
0.004918579118861974 -0.007318560656651381 -0.000252455856794634 -0.001353469245072268 -0.004872519721720147 -0.003595208057535374 
0.01227798497400397 -0.02600020392817776 -0.01213935473406087 -0.01724727988109058 -0.01327857609928674 -0.01637503087753638 
0.05414608254710467 -0.03061113937372881 -0.01436119005233232 -0.03254022760455326 -0.01436412914285829 -0.04938766915421461 
0.06874958639711976 -0.01077305713233186 -0.009867063627977497 -0.03029072280009832 -0.0344776353714679 -0.0127085190900786 
0.008405828216816236 -0.00603455054281079 -0.00986165459024973 -0.00666950198021682 -0.02286996587118012 -0.005603647906199121 
0.002840656327708046 -0.0002323586561259813 -0.0002510109006040932 -0.004683472338511809 -0.0007653353929632906 -0.003182276781090124 
0.06766940907492201 -0.001439566775417905 -0.002909019725564384 -0.02373529429491996 -0.02466491277500693 -0.01826339089268233 
0.1328239918796797 -0.01249262537623058 -0.02113122740152428 -0.03990248544147303 -0.05383696331198462 -0.04967970319645663 
0.01245949326318718 -0.02325490773674042 -0.01336456520137223 -0.01235498663574378 -0.01702727508730004 -0.008287706597149178 
0.01032936583758925 -0.00234553919506606 -0.001171806071587825 -0.002903104997050925 -0.00209615242555472 -0.03107802341457814 
0.04114501452850152 -0.02949752041187421 -0.02317408937263883 -0.01978628990432057 -0.0569518857693754 -0.02100025112294742 
0.009185896219418246 -0.007671228156926777 -0.002532376726764543 -0.009662208356362974 -0.005525927492322069 -0.01076975187597669 
0.01097821319494532 -0.005671814853607674 -0.0009779490164508334 -0.003257828832727993 -0.00291757873312498 -0.004173668929256535 
0.06518198471949764 -0.001305142312612474 -0.006286084353366381 -0.005989836467841948 -0.1988378121917643 -0.002378386639232961 
0.01016198543716722 -8.25243582300013e-05 -0.03098980611920599 -8.854891321749433e-05 -0.01308237044830102 -6.09115538630699e-05 
0.01632576476692209 -0.007126247265535046 -0.0005650431952559078 -0.004956184137729626 -0.001648371715543273 -0.02713260480248563 
0.1843874205569491 -0.03394483314000369 -0.009185946392381001 -0.1104634455900739 -0.06965727397490437 -0.05678778602360871 
-0.3384099783795365 -0.1349597194895363 -0.00911749534570455 0.7531526449612992 -0.1041538846664596 -0.3374962994804867 
0.01288914064329059 -0.0001087729825679517 -6.501392750283325e-05 -0.006081454767462112 -0.002140503854581562 -0.004371926896705194 
0.01126331789033505 -0.0006964565553843335 -0.0004838462806824141 -0.0006565640267247311 -0.000731247121464318 -0.05045733143308898 
0.03238979240881153 -0.00399590943718295 -0.007466857091609338 -0.02489542438073554 -0.043871819098773 -0.00968839495357484 
0.008893140351763862 -0.0002453416717669681 -0.001065908679704245 -0.003981181867928712 -0.005592045413684662 -0.000830516128752078 
0.04718023884331173 -0.02714556677144445 -0.0160567602167228 -0.0335996923331927 -0.0313743122610368 -0.01598905622498645 
0.06543955451951504 -0.06056687055453115 -0.05588369658584988 -0.06469536470257738 -0.0453618111224752 -0.05532977196195241 
0.007227526053691456 -0.002300746104935363 -0.00114655058779611 -0.002542174139815038 -0.004053254744079213 -0.009965095758717018 
0.005806600244674238 -0.001144895615413825 -0.0001725050593528009 -0.001618922282785427 -0.001190253089524317 -0.001470365309159519 
-0.6759006582753732 1.387694721540411 -0.5061457145906281 -0.3420075511380269 -0.4261106301218534 -0.1166235658874681 
0.7713465955258111 -0.296835574776603 0.5020961544007658 -0.2157820512014035 -0.2330574633693389 -0.4736924908813768 
-0.8108812615362946 1.067702601952744 0.829119472334463 -0.1658998371548132 -0.2795355100172753 -0.4966710132528422 
0.02313813429499776 -0.006269711785945389 -0.0009286577331680244 -0.006401419799916719 -0.003240888987644226 -0.04586625198839191 
0.007832256425739549 -0.001868534107081663 -0.001562456423374631 -0.003191332694293235 -0.003946185242732079 -0.009836337467634314 
0.01009020014591631 -0.006495948644601479 -0.002726261582590389 -0.007230628708237005 -0.01907152328504895 -0.01017654713881528 
0.03988548041687762 -0.00235972685295126 -0.01912128583622956 -0.006539618397781796 -0.01945981563602195 -0.1477723898913354 
0.01177359027848422 -0.01229858349825628 -0.009080758095463883 -0.006777784353339873 -0.007026975508650423 -0.01097724847677991 
0.03369575103692926 -0.01742375299726687 -0.006451660742236675 -0.0388943775132196 -0.0171515221092651 -0.01775105495559404 
0.008775018345410628 -8.893435148674814e-05 -0.008634157912087758 -0.0001160636167698284 -0.0122253566154966 -4.875048754870065e-05 
0.01156782847270542 -0.0001625915168386751 -0.0005244626843627642 -0.003585896078315962 -0.004848547133401177 -0.003654820433023169 
0.01519403254890033 -0.0001996750326399601 -0.03653276325474605 -0.004841227714902172 -0.01006740854714149 -0.003782085040048924 
-0.6111338923799048 1.244297090309658 -0.1305063087273923 -0.2388946725122445 -0.1866689552699325 -0.3596968637895601 
-0.1652328688352246 -0.01269442734377477 0.2113070358610102 -0.00303988358120796 -0.06489308497413415 -0.01062046631863359 
0.009295989764970543 -0.008143024349645523 -0.000887294190137749 -0.004451189378673229 -0.002716719145745107 -0.0106252150107186 
0.009395210547503721 -0.01070334887847252 -0.0005541818869631494 -0.005264601379068212 -0.002832946631774012 -0.00267255485858442 
0.04591295553961548 -0.01530238415318537 -0.04899248374944264 -0.004351364396908071 -0.06414997801903302 -0.001840888827502912 
0.03160635609499153 -0.003248127895550689 -0.002440751433472948 -0.01521772670159998 -0.006789552316477699 -0.01489403032762243 
0.01579203117801846 -0.0006235147034932109 -0.0005348359495101991 -0.002317569018206326 -0.01808304793853572 -0.002963038904177331 
0.003074139856332227 -0.001916261086414122 -0.001319923482819832 -0.003269110146610217 -0.004746583851045885 -0.003136955839171032 
0.008722878923614216 -0.0003910142961489135 -0.00141732930951674 -0.001292162877533014 -0.003912250263978096 -0.003677590535097232 
0.02153376509894776 -0.00124708849352771 -9.765550606892064e-05 -0.01709233401762926 -0.001042760189542444 -0.002803861870067065 
0.009540059713009049 -0.002256178807312459 -0.00171002209131942 -0.005336563707303398 -0.005426432539980377 -0.008751838781462072 
0.01171539449796218 -0.01270540664485064 -0.001556352630397435 -0.007247998348972541 -0.004100505534773272 -0.005825714520172367 
0.003050141161048852 -0.001029667628022534 -0.00145329613616269 -0.002529308943764828 -0.003525902983099393 -0.0013215672712913 
0.0857455838663435 -0.07087687994493244 -0.01350000053187844 -0.07136780351258167 -0.03681351781316246 -0.112320887392769 
0.007539134346698041 -0.01070691161001078 -0.005822273701500342 -0.006069139363506382 -0.03298317215778909 -0.008115045784349658 
0.02330502142589764 -0.0003628976131659486 -0.0007600117403767218 -0.02776375290974753 -0.002199971088645186 -0.007534554806878985 
0.01189591336658187 -0.00170119669375181 -0.002039102422463559 -0.007430968925036433 -0.009764317803824332 -0.005470375549837454 
0.002281993702441948 -0.0003142701291637467 -0.0003523317459416038 -0.005873737319117449 -0.00161605532204787 -0.001454822107903897 
0.0514313729966039 -0.004487151615256553 -0.003612779927607284 -0.03355257333565639 -0.01822482012701652 -0.02170826171079817 
0.01874682636324535 -0.02262115690757059 -0.01605065716440143 -0.01421997019055393 -0.02836390214946925 -0.0123414771733787 
0.001012550243703799 -0.001468275771062153 -0.002030758673218946 -0.001872792304274871 -0.00315947511267089 -0.002780819050357752 
0.02748108967401755 -0.009318485502231404 -0.00730564784849677 -0.03380913055733564 -0.01455155226336329 -0.02938002021329561 
0.008606362797654029 -0.005367941756339902 -0.003949310937020302 -0.005747529279128794 -0.009250441898156639 -0.01159526186344164 
0.003594196100976773 -0.000658150189269191 -0.000269254150527232 -0.01305684842848576 -0.002573545989096328 -0.007344995069732269 
0.001817140302573066 -0.002753473196882141 -0.001355072584863714 -0.001838573444462645 -0.001266120561271208 -0.001682870366150998 
0.01820547899548141 -0.007903589863530618 -0.003864188171094619 -0.01050356356335617 -0.01406105153663008 -0.008798816581454299 
0.06280943007821528 -0.00183979664736354 -0.02642656200862905 -0.03515778620810732 -0.05218399378812386 -0.006079640868515404 
0.006362350899070826 -0.00023673801162986 -0.001038463344446526 -0.003765871014579117 -0.005717050183840377 -0.0007052802270263342 
0.2057447448034677 -0.1783090583902033 -0.3911811865351456 -0.06106404908167709 -0.3264464332401776 -0.04536296037577973 
0.04402722212757661 -0.02029056028983183 -0.006212843845654442 -0.0351987520150589 -0.04557753877975764 -0.01648721122350641 
0.2279853680386285 -0.0705348007228008 -0.00124146172262329 -0.04078989691363016 -0.09958411559592079 -0.02508522936379231 
-0.6685517136279611 2.170623265951206 -0.5867574777109181 -0.6400954130489488 -0.6054210795899605 -0.880870898987829 
-0.6117478235623851 0.247541230664888 0.9475955425033993 -0.198585925528753 -0.4036494023558847 0.4675135909188363 
-0.1973726370235242 -0.0131178309931893 0.2144814816646941 -0.003007216773145769 -0.05790742568800392 -0.0103863942439035 
-0.2258193098976331 0.8754508255006357 -0.110680833296854 -0.09918847804802659 -0.1363935849221648 -0.1925449435342953 
-0.1835617126694143 -0.05780825669998731 0.5148027919793162 -0.01210887695907406 -0.1937054481157021 -0.007868395054688178 
-0.2002307789549836 -0.0157537130014234 0.3198170377211889 -0.003091124883520762 -0.07903098393245195 -0.01078392089352041 
-0.2008538509992339 0.7105968931099396 -0.08849211834263229 -0.1020933492092634 -0.113577360010628 -0.1962553643195604 
-0.2139122021350526 -0.01502975516897962 0.3197790007428549 -0.003083910916231258 -0.07604190201578086 -0.01079064258528538 
-0.5826266223655282 1.332761865704486 -0.1338776872992424 -0.4400761728264469 -0.3105264469956739 -0.5247315783030746 
-0.1257037432297891 -0.0156406377042172 0.2591917250565594 -0.00558223571142266 -0.08252909342708846 -0.009203647735013355 
-0.08380230554345797 0.3148764823397578 -0.004697945374870188 -0.0668687436197186 -0.05312177965739762 -0.1397671303509355 
-0.8853700840058533 0.9937806067323064 0.9788594606980795 -0.05792705695844138 -0.3846289242129933 -0.437108385329789 
0.06438047690536106 -0.00197267249388511 -0.0002978628113823787 -0.0129839789825309 -0.0008558740804266961 -0.01933586048184294 
0.01867260253391586 -0.005013269846300726 -0.001900687978472747 -0.04647191677473744 -0.006675755552906665 -0.03101527510960572 
0.01846259034371111 -0.003357042201614033 -0.004542060254458673 -0.006560652726019883 -0.01712901817299619 -0.003917436167798519 
0.005511391549010637 -0.0001016819534046786 -0.0006902744993140748 -0.00797556144677525 -0.0009285834658987926 -0.0006544048379281113 
0.005861547910668927 -0.0004655983779578285 -0.0005026283990590883 -0.009647417567408671 -0.001533994378492546 -0.006381458949546486 
0.01341632180242203 -0.000955192711668122 -0.001412885181460608 -0.00265169200546137 -0.005925027092064183 -0.003802222037810089 
0.01538676109664747 -0.00982731380636899 -0.00053198862674868 -0.006868062701373618 -0.002405407324493057 -0.0164416068266505 
0.02819520798088727 -0.002121915351035145 -0.005208918833184414 -0.005939126173057783 -0.008563400081707596 -0.008878321926586582 
0.01007886293105494 -4.540371002538226e-05 -0.0002872065776985447 -0.01454512573038923 -0.0006699373910451724 -0.0009265617389892745 
0.003115891739855057 -0.0001855499956649927 -0.0003874057867164416 -0.00530796418344141 -0.000769887545658356 -0.00410623964899051 
0.005453339603515846 -0.0005447008198669028 -0.0003899309146272318 -0.002453347579639817 -0.005009154330574846 -0.004446385504151006 
0.01764565406932442 -0.0003984354301319363 -0.001093692075400921 -0.005602539812373169 -0.01288573186052415 -0.004202776928722111 
0.01060615047605329 -8.516126756519136e-05 -0.0002220191904383488 -0.008828831714987127 -0.0007700568946663993 -0.00343799893249053 
0.009007145929548184 -0.006106817216973806 -0.007798580336281007 -0.004955554546209136 -0.006955867652464209 -0.009729066967232327 
0.0107502135738105 -0.003370624817209603 -0.0001634256780320974 -0.003887275850841545 -0.004968466075957892 -0.01148160486161323 
0.01007886293105494 -4.540371002538226e-05 -0.0002872065776985447 -0.01454512573038923 -0.0006699373910451724 -0.0009265617389892745 
0.06818279886119993 -0.002935846073938659 -0.007706651637179941 -0.04806485166042043 -0.01667152873686148 -0.0213972072994889 
0.03143556598271569 -0.008256752084653894 -0.008149601353482605 -0.006207774361875618 -0.02004868159075368 -0.002773832207330292 
0.0073240189028507 -0.007084804466660204 -0.001854941109299613 -0.007444303089223013 -0.01088501684142604 -0.006616298289481613 
0.01928306818972773 -0.001894709142665046 -0.004754992002989221 -0.0114338506282896 -0.02925024917194513 -0.03076639002268136 
0.04770287105996267 -0.004809884333994863 -0.006426704762554563 -0.01837370445324707 -0.02282927620822179 -0.01966539280162534 
0.02369772750845021 -0.00466451978827854 -0.1004212577570449 -0.003130297426122914 -0.03769396570373323 -0.01566542745349108 
0.1707840652270228 -0.02489741470081032 -0.003908581343877832 -0.07645698587306957 -0.008300026680055757 -0.07272053166216526 
0.02454379950359549 -0.006031989242374742 -0.001081453002389401 -0.006428832622718566 -0.004327934695918285 -0.03297950477099231 
0.01188606095932552 -0.007470761862386625 -0.002169320622241286 -0.003556119356225521 -0.003991947448813406 -0.01311267340987434 
0.003340640669523162 -0.01081602024046712 -0.007046712363967444 -0.0141034366334386 -0.007466168022928387 -0.01110496359108585 
0.09047052227322824 -0.08561911295444248 -0.1213907945124884 -0.05043539968700562 -0.1048416240384008 -0.0528387423661814 
0.001295433864142326 -0.001295703103975452 -0.0004241909006160417 -0.001919767342588852 -0.001944689455939312 -0.002545143909330422 
0.03997037081557375 -0.005794431401740516 -0.008115481024594371 -0.02385619801596883 -0.0187350737600722 -0.005076055493468025 
0.02700425858023614 -0.004298440486151836 -0.0060082675638078 -0.004391224780313069 -0.01746527533382743 -0.005549093869559245 
0.002382306731334548 -0.0002252351088670925 -0.0005561850593415905 -0.006138386432231527 -0.001534883164115985 -0.002503015729849648 
0.2689171289242378 -0.2533837178924185 -0.05250403748285565 0.4380444574042724 0.5768211044391675 -0.513744238171001 
0.01598626141034448 -0.01409927827376835 -0.02550815488563806 -0.01509235969339401 -0.03669618482590228 -0.01281274618132569 
0.002748275915028413 -0.0002058305407901564 -7.406837067184211e-05 -0.0001912118660028231 -0.0002820007759058828 -0.01225230753192606 
0.003795030862356222 -0.009437360952016024 -0.001630727733630124 -0.007161403349042712 -0.005072276774587225 -0.001924894294961707 
0.03064066646947367 -0.005405439832536214 -0.003366739346156546 -0.02890815874529311 -0.03954731785674485 -0.01439773626848142 
0.01506822310745466 -0.002319764702101231 -0.002061858490273838 -0.006742004767532371 -0.01230916043281734 -0.00281298946309771 
0.01605233687463386 -0.00297829036234793 -0.002100463036396843 -0.00333956655314825 -0.01401828094974173 -0.004227848052552948 
0.08721246533774563 -0.008304695265174779 -0.03785212727752219 -0.03840875329957247 -0.02465154416730094 -0.01540425280648637 
-0.270684232266815 0.8971207899052437 -0.008166732364538942 -0.06351771685836526 -0.04027138187643291 -0.3487768864822277 
-0.6640879627997741 1.001124971674569 0.6273874361753777 -0.3177799257710271 0.1773689490861625 -0.6796358712975243 
0.002222719090021727 -2.514239070807384e-05 -0.0002841436936738029 -0.00261349237991879 -0.0001729982578239982 -0.002295587706080355 
0.8741696577360567 -0.1213585324800331 -0.006191113885059038 -0.2862477798020542 -0.02725098481951482 -0.4048684680987649 
0.03436359928199844 -0.03376568234623165 -0.06855229100620443 -0.08988402932474697 -0.05384250692597122 -0.06048433777006914 
0.05055664610109275 -0.01864013822166521 -0.0247560460349996 -0.02550152179077357 -0.04121208700747002 -0.01776148122521993 
-0.111390104621447 0.4014603414697245 -0.002361651093411656 -0.1075215062343072 -0.02021806026922996 -0.1269612466902909 
-0.2127415754954531 -0.01951341793238363 0.4532602374954721 -0.003524756463322766 -0.1033521833006896 -0.004235610140291949 
0.003179585274126518 -0.001361783594738074 -0.0006148505681596305 -0.002889749374367627 -0.002606603988173763 -0.005553723265168461 
0.04134527662059766 -0.1350700742178223 -0.01524276415503911 -0.2499919223037779 -0.1780665869304747 0.7578502822821291 
0.008375172178345604 -0.0004518252695761608 -0.03905379172232378 -0.0001707451994567065 -0.01031499492694736 -1.818610942881682e-05 
0.0005186203975474131 -0.0001409646329698865 -0.0004108039815036093 -0.0004798933854966804 -0.001079295123243831 -0.0001957654589977561 
0.003963353732381756 -0.001713240206558131 -0.00172088328709285 -0.003592972179053495 -0.005581937366321878 -0.006605549154954358 
0.02090792347563892 -0.01564900651952265 -0.03039335763777433 -0.02272659728788994 -0.02854116539884318 -0.01513496754471105 
0.01643690204124664 -0.01233683826017572 -0.02907206680497838 -0.00675182895388361 -0.019592815431011 -0.0427655032465735 
0.02582030182179194 -0.007527734331521138 -0.005279985509569816 -0.005471465295978159 -0.01156802588574155 -0.005425990947034227 
0.004760668307245078 -0.0004585039698532074 -0.00943504515465278 -0.001205222878358417 -0.007743841677056422 -0.002114477410425007 
0.6026889066850891 -0.3440527834366867 -0.001253776674086899 -0.08392621542323173 -0.00262435248592212 -0.166189213543924 
0.4972046577984595 -0.06726939440765498 -0.1100343152568773 -0.009526964954208404 -0.1282992481340247 -0.003767409905812942 
0.3231872437062008 -0.01477365730093875 -0.1098586741607101 -0.004156934189109045 -0.07319352796860781 -0.004392055697490327 
